// Auto-generated weights for HLS MNIST CNN
#pragma once

const float conv1_weights[72] = {
0.119868, 0.144715, 0.279880, 0.390885, 0.144677, -0.136776, 0.350302, 0.066580, 0.116960, -0.210485, 0.475991, 0.360521, 0.089408, 0.070774, -0.066016, 0.385999, 0.288382, -0.462575, 0.312448, -0.222548, -0.243822, 0.574740, -0.325639, 0.503529, 0.269270, 0.134263, 0.447392, 0.399953, 0.356124, -0.241538, 0.415625, -0.146703, 0.446625, 0.295161, -0.030193, 0.249552, -0.064050, -0.147538, -0.029631, -0.026538, 0.088828, -0.014599, -0.222175, -0.077815, -0.307565, 0.166572, -0.379159, 0.011392, 0.043711, 0.048176, -0.357563, -0.061518, 0.260160, -0.443454, 0.287313, -0.281741, 0.219531, 0.322297, -0.488667, 0.143172, -0.165620, -0.319505, -0.122292, -0.510636, 0.166339, 0.442631, -0.224105, 0.108493, -0.367983, 0.074563, -0.085664, -0.274775
};

const float conv1_biases[8] = {
-0.022553, -0.014648, -0.001986, -0.033101, 0.028656, -0.027434, 0.001738, 0.057819
};

const float conv2_weights[1152] = {
-0.073988, -0.023055, -0.311944, -0.231221, 0.289701, 0.125060, -0.140161, 0.376925, 0.142187, -0.154711, 0.070071, 0.057376, -0.061450, -0.060507, -0.152074, 0.105978, -0.145828, 0.176350, -0.329372, -0.366462, 0.004173, 0.229850, 0.030998, 0.153031, 0.281124, 0.051253, 0.215244, 0.004348, -0.001278, -0.251564, -0.021727, -0.137825, -0.220334, -0.320294, -0.053677, -0.179465, 0.107380, -0.080699, 0.164459, 0.236194, 0.127220, 0.129273, -0.133522, 0.029265, -0.039560, -0.016697, -0.032541, -0.244840, -0.211062, -0.015118, -0.304243, -0.219007, 0.111645, 0.146172, -0.093639, 0.299195, -0.012229, 0.013414, -0.054775, -0.060315, -0.218480, 0.004191, -0.080524, -0.183930, -0.223587, 0.266527, -0.192033, 0.262223, -0.229845, 0.056351, -0.076048, 0.322571, -0.105759, -0.124924, 0.035426, -0.135207, 0.000536, -0.104915, -0.004755, -0.391617, 0.170540, 0.248979, 0.274283, 0.098925, -0.236746, -0.313674, -0.103696, 0.249445, 0.111689, -0.167199, 0.089643, 0.060691, 0.183733, 0.222402, 0.017744, -0.125588, -0.378861, 0.101971, -0.362093, 0.007036, -0.049715, 0.206563, -0.064174, 0.149872, 0.027708, 0.061037, -0.076781, 0.022007, 0.065722, -0.115992, 0.061028, -0.171909, 0.025375, -0.277992, 0.272844, -0.009865, 0.092800, -0.468547, 0.009917, 0.045262, 0.062460, -0.228461, -0.117531, -0.143715, 0.331247, 0.266105, 0.044499, -0.177399, 0.166504, 0.140784, 0.018326, -0.051531, 0.231162, 0.006757, -0.077686, 0.054636, -0.009512, 0.031117, 0.105056, 0.024986, -0.243945, 0.041812, 0.066204, 0.048297, 0.071598, 0.034140, -0.128891, -0.100045, 0.096398, -0.142126, -0.041004, -0.166345, 0.319152, 0.095839, -0.160279, 0.144667, 0.025863, 0.214594, 0.112547, 0.032151, -0.099568, 0.160595, 0.060125, -0.379565, 0.069791, -0.079796, 0.292960, 0.012075, -0.440332, -0.045245, -0.174531, -0.208474, 0.251210, -0.076445, 0.055379, -0.189800, 0.223703, 0.143350, 0.067966, -0.126677, 0.220127, -0.039267, 0.067687, -0.034713, 0.246139, -0.241747, -0.024066, 0.223519, -0.123088, 0.189502, 0.048782, -0.068281, 0.154572, 0.109809, -0.250058, -0.145750, -0.426773, 0.106477, -0.109411, 0.234404, -0.237818, -0.232564, 0.090673, -0.052034, -0.117853, -0.202425, 0.202845, -0.102557, 0.176740, 0.093219, 0.347398, 0.170639, 0.146044, -0.339708, 0.139895, -0.258919, 0.003582, -0.280043, 0.073659, -0.024128, -0.161894, 0.073469, -0.173225, 0.031562, 0.182525, 0.386331, -0.256910, -0.133553, -0.163962, 0.115674, 0.172209, 0.290391, 0.145025, -0.106673, -0.141591, 0.057681, -0.053101, 0.011433, 0.037102, -0.264484, -0.409683, -0.111496, 0.287277, -0.215342, 0.189702, -0.150217, 0.175224, -0.031874, -0.001571, -0.202303, -0.041434, -0.162356, 0.186022, 0.281601, -0.009120, -0.314948, 0.064250, -0.038934, 0.029410, 0.032425, 0.066809, -0.136117, -0.178624, -0.088997, -0.305782, 0.118418, -0.052429, 0.060769, -0.172383, 0.161752, 0.172599, 0.135072, -0.039204, -0.019075, -0.129619, -0.119365, -0.036381, -0.180674, 0.113058, -0.079238, 0.118041, 0.130518, -0.241924, 0.151664, 0.102513, 0.212863, -0.067814, 0.291989, -0.193998, -0.033769, 0.378804, 0.120601, -0.139028, 0.034125, 0.169058, -0.069292, -0.365024, 0.047454, 0.001036, -0.029359, 0.164895, -0.159756, 0.032829, -0.383789, 0.052186, 0.176389, 0.012860, 0.068512, 0.185820, -0.276426, -0.071721, -0.188818, -0.116547, -0.176951, -0.160183, 0.197596, -0.148443, 0.133969, 0.106596, -0.169596, 0.168594, 0.369104, -0.138970, 0.262630, -0.118818, 0.187620, -0.172807, -0.133217, 0.014665, -0.194482, 0.004584, -0.055915, -0.067501, -0.034288, 0.037398, -0.221384, 0.325808, -0.201530, 0.014357, -0.024627, 0.165873, 0.186541, -0.060810, -0.132359, -0.001997, -0.268295, 0.130571, -0.000598, -0.186391, -0.001651, -0.016928, -0.368949, 0.332408, 0.163257, -0.117909, 0.136274, -0.193065, -0.030906, 0.138752, -0.187860, 0.081228, -0.357053, 0.141486, -0.015126, -0.354124, 0.066341, 0.204580, -0.065313, -0.282885, -0.194868, 0.247482, -0.283859, -0.051276, -0.056217, 0.317723, -0.121359, -0.050481, 0.019751, -0.127077, -0.141457, -0.068283, 0.087976, 0.055647, -0.232358, -0.169180, 0.208062, 0.025179, -0.162103, -0.022096, -0.001742, -0.179420, -0.202246, -0.185185, 0.161338, 0.116635, 0.010703, -0.238425, -0.301806, -0.043947, 0.161306, -0.251189, -0.029129, 0.105004, -0.183704, -0.153989, 0.192226, 0.116180, -0.161339, -0.007347, 0.076438, 0.150385, 0.020337, 0.011846, -0.120371, -0.061258, 0.116021, -0.257615, -0.108338, -0.251986, -0.219624, 0.067285, -0.306350, -0.055501, 0.441941, -0.057623, -0.191534, -0.014159, 0.083506, 0.054949, -0.181071, 0.266712, -0.218898, -0.287468, 0.048440, 0.039149, -0.144942, -0.122277, 0.160739, -0.028045, 0.058393, -0.110434, 0.066885, 0.100126, 0.062299, -0.181442, -0.282717, -0.064174, -0.082604, -0.390012, 0.111427, -0.166619, 0.110318, -0.386010, -0.238795, 0.118000, 0.029541, -0.081201, -0.220043, -0.281727, -0.157449, 0.231878, 0.364774, 0.178953, 0.006941, 0.142912, -0.046570, -0.185662, 0.213608, 0.003709, 0.151123, -0.040329, -0.145492, 0.181706, -0.042602, 0.080074, -0.141947, -0.117464, 0.264120, -0.121670, -0.169041, -0.314301, -0.007615, -0.173085, 0.057965, -0.146057, 0.187321, 0.010004, 0.051817, -0.004508, -0.091241, 0.099104, -0.308528, 0.183675, 0.179015, 0.042189, -0.211218, -0.176490, -0.337568, -0.047407, -0.019095, 0.255429, -0.211340, 0.109864, 0.126065, 0.073145, 0.039536, 0.153354, 0.015019, 0.014753, -0.052263, -0.067773, -0.107495, 0.139858, -0.080259, -0.351857, 0.132866, -0.030785, 0.017510, -0.214044, -0.291799, 0.041655, -0.041542, -0.007518, 0.154600, -0.022922, -0.031986, 0.112487, 0.240496, 0.141890, -0.035488, -0.120817, 0.020452, -0.034391, 0.198855, -0.049946, -0.213006, 0.109548, 0.039489, 0.232229, 0.119703, 0.218574, -0.249517, -0.015166, 0.229225, -0.267188, -0.016601, -0.386676, -0.120191, 0.306985, -0.371859, -0.085931, -0.061953, -0.134888, 0.042656, -0.181613, 0.023474, -0.238120, -0.073231, 0.098283, -0.102371, 0.295367, 0.210165, -0.275389, -0.031563, -0.109019, 0.191010, -0.224805, -0.166656, 0.156606, -0.040584, 0.206990, -0.045968, -0.252837, -0.003430, 0.172247, -0.007425, 0.150975, 0.388725, -0.154400, -0.075851, -0.249694, -0.101392, -0.085282, -0.211753, -0.410066, -0.306355, -0.099199, 0.051653, -0.213634, -0.150427, 0.036244, -0.009767, 0.339817, -0.291718, 0.066398, 0.257894, 0.025773, -0.092698, -0.207766, -0.000108, 0.346039, 0.047110, 0.183763, -0.158711, -0.093317, 0.167411, -0.069557, -0.255517, 0.209898, 0.125400, -0.059427, -0.114435, -0.027232, 0.180079, -0.168997, 0.026436, -0.249728, -0.136583, -0.042088, -0.158734, -0.303495, -0.317741, 0.249001, -0.093871, -0.223056, -0.319340, 0.359271, 0.027654, 0.118324, -0.227407, -0.011621, 0.099740, 0.273499, 0.200615, -0.049575, 0.115262, -0.110063, 0.017905, 0.188814, -0.084328, -0.090564, -0.276091, -0.317234, 0.042806, -0.014674, -0.157531, 0.059411, -0.111901, -0.025743, 0.037936, 0.002651, 0.121671, 0.079798, 0.071698, -0.050872, 0.002476, 0.003865, -0.196869, -0.102101, -0.070005, -0.059797, -0.036582, 0.151762, 0.232284, 0.258054, 0.100246, -0.056008, 0.006366, 0.318130, 0.186562, 0.242800, 0.111958, -0.363221, 0.026298, -0.039813, -0.145889, 0.175877, -0.225172, -0.060363, -0.270376, -0.243216, 0.145937, -0.198442, 0.052370, 0.016218, -0.132390, 0.042331, 0.068412, 0.185704, -0.092940, -0.123871, 0.076983, 0.163461, 0.140250, -0.163184, -0.070723, 0.063998, 0.037720, 0.031335, 0.064137, 0.068577, -0.025219, 0.180851, 0.189683, 0.126906, 0.142647, -0.219558, 0.141825, -0.144155, 0.124495, -0.041701, -0.490611, -0.014693, -0.238358, -0.136866, -0.122169, -0.096092, -0.025927, -0.215007, -0.076283, 0.318062, 0.035919, 0.086480, -0.119581, 0.101484, 0.089022, -0.381910, -0.138820, 0.026056, -0.084041, -0.010986, -0.142786, -0.014991, 0.320724, 0.118088, -0.193950, 0.284121, 0.275002, -0.094576, 0.165659, -0.085794, -0.037821, -0.258853, -0.308364, 0.065067, 0.037698, -0.008034, -0.003784, -0.426028, 0.060275, 0.158895, -0.086777, -0.290248, -0.108967, 0.030612, -0.259670, 0.125115, -0.079937, 0.060345, -0.004954, -0.145634, 0.341012, 0.257634, -0.175238, -0.098033, 0.275116, 0.079338, 0.067627, 0.092037, 0.083861, 0.025079, -0.120369, -0.076742, 0.113300, 0.199315, -0.221938, 0.059889, 0.107784, -0.003488, -0.024768, -0.406261, 0.161227, -0.028291, 0.224038, -0.031291, -0.116058, 0.344242, 0.184092, -0.194061, 0.003377, 0.258199, -0.069252, 0.144083, 0.011830, -0.103133, -0.253366, -0.178996, 0.048771, -0.158007, 0.058967, -0.325412, 0.223355, 0.213012, 0.081043, -0.246421, -0.134506, 0.212812, -0.173620, 0.141015, 0.301593, -0.107449, -0.083561, -0.213011, -0.196660, 0.182977, -0.206950, -0.234230, 0.188155, 0.145012, 0.040142, -0.288595, 0.069008, -0.032470, -0.202857, 0.074226, 0.088170, 0.020351, -0.038725, -0.264612, 0.200648, 0.171790, -0.008066, -0.231096, 0.338408, -0.105029, -0.138336, -0.310462, -0.130714, -0.230366, -0.012211, -0.181049, -0.283387, -0.252224, -0.206364, 0.246899, 0.423022, -0.077118, 0.061082, 0.164366, 0.040279, 0.014681, 0.086625, -0.107563, 0.203278, -0.003248, -0.420878, -0.130513, -0.000748, 0.135103, -0.214180, 0.091377, -0.073649, -0.268514, -0.194544, -0.481227, 0.239849, 0.085294, -0.011402, -0.334801, -0.158445, -0.018378, -0.161807, 0.168371, 0.031276, -0.179204, -0.136998, 0.177543, 0.640978, 0.012135, 0.047435, 0.111999, -0.293065, -0.101936, 0.074129, -0.247012, -0.030247, 0.306602, -0.158643, 0.006429, 0.285147, 0.105572, 0.002985, -0.002677, -0.154114, -0.063417, -0.371145, -0.074669, -0.039202, 0.238048, 0.077848, -0.014740, -0.010615, 0.269081, 0.002990, 0.146562, -0.020560, -0.172762, -0.028282, 0.093691, -0.280310, -0.119149, 0.242773, -0.024807, 0.050451, 0.086685, 0.198014, 0.080523, 0.136563, 0.101146, 0.225174, 0.011822, -0.200566, 0.161425, -0.017538, 0.102966, 0.029676, -0.269008, -0.127900, -0.072896, 0.005336, -0.123723, -0.064130, -0.057556, -0.056107, 0.310051, -0.149011, -0.047134, 0.319102, -0.136791, 0.010581, 0.107331, -0.405773, 0.197845, -0.023214, 0.148318, 0.019655, 0.218239, -0.037696, -0.175386, 0.027089, 0.108354, -0.167426, -0.170725, 0.101798, 0.000716, -0.000953, -0.037448, -0.353227, -0.170167, 0.052658, -0.052096, 0.351241, -0.064603, 0.023085, -0.086426, -0.133246, 0.065152, -0.034755, 0.030432, -0.316193, -0.212092, -0.183283, -0.109673, 0.042032, 0.021763, -0.030259, 0.223493, -0.147043, 0.014628, -0.068922, -0.086510, 0.238981, 0.187170, 0.007154, 0.108017, 0.131763, 0.081960, -0.026896, 0.196157, 0.164928, -0.102129, -0.278787, -0.137480, 0.110133, 0.249195, 0.078411, -0.280688, -0.031071, -0.038033, -0.351072, -0.031954, -0.118111, -0.024828, -0.084791, -0.325822, -0.155724, -0.112428, -0.049999, -0.149569, -0.158539, -0.127138, -0.054222, -0.193209, 0.041269, 0.250256, -0.127346, 0.208453, 0.434057, 0.297088, -0.087732, 0.249012, 0.174919, 0.089811, -0.178433, 0.079936, -0.095574, 0.019709, 0.026781, -0.042235, 0.251698, -0.011424, 0.270285, 0.103550, -0.027924, 0.101136, 0.080343, 0.307640, -0.043106, -0.025320, -0.109873, 0.116449, -0.253445, 0.274010, 0.258960, -0.131518, 0.173343, 0.045966, 0.182674, 0.053300, -0.213220, 0.002685, 0.046533, 0.147980, 0.043385, -0.323402, -0.147120, -0.086678, -0.014701, -0.125821, 0.059633, 0.116860, -0.025545, 0.278463, 0.077124, -0.182147, 0.153217, 0.059400, 0.036121, 0.103733, -0.002798, 0.071253, 0.125813, -0.051365, -0.076030, -0.026418, 0.039852, -0.033892, -0.010460, -0.048312, 0.064008, 0.095154, -0.011338, 0.121286, 0.025325, 0.031014, -0.234879, -0.177068, -0.040619, 0.073775, -0.046780, 0.098336, 0.089640, 0.060041, -0.231306, 0.088452, -0.061196, -0.163432, -0.240671, -0.201980, -0.200469, -0.054755, -0.068143, -0.187278, -0.024636, -0.021600, 0.193295, -0.212381, 0.083778, -0.234347, 0.009479, -0.081949, -0.103231, -0.081342, -0.152704, 0.006033, -0.089727, 0.058684, 0.178310, 0.026125, -0.120023, 0.222689, 0.063432, 0.038781, 0.191686, 0.039346, 0.019907, -0.004459, 0.102285, -0.183481, 0.045326, -0.076205, -0.119033, -0.045591, -0.046136, -0.274701, 0.123101, -0.001094, -0.015296, -0.250789, -0.173280, -0.128140, 0.075684, 0.331934, -0.201597, -0.166955, 0.014626, 0.293482, 0.172456, -0.031979, 0.033453, 0.417187, 0.043711
};

const float conv2_biases[16] = {
-0.040028, -0.050241, 0.054509, 0.007897, -0.025742, -0.107151, -0.079104, 0.047870, -0.134820, -0.005157, -0.121695, -0.090354, 0.087142, 0.051674, -0.098507, 0.026805
};

const float dense1_weights[25600] = {
-0.025266, -0.190341, -0.133317, 0.146487, -0.049217, -0.111330, 0.182374, 0.005968, -0.018941, 0.088846, 0.001785, 0.122468, 0.057312, -0.194923, 0.001647, -0.062292, 0.002976, -0.145679, -0.112214, -0.140780, 0.086066, -0.138512, -0.227216, -0.006969, -0.026794, 0.073406, -0.136793, -0.027097, 0.002914, 0.229867, 0.067073, -0.030476, 0.025283, -0.051139, 0.061742, 0.088034, 0.068754, 0.012496, -0.116170, -0.150173, 0.266392, 0.035251, 0.065737, -0.008193, -0.136508, 0.113025, -0.073715, -0.085886, 0.070809, -0.115281, -0.025330, 0.063247, 0.120594, -0.015098, -0.015201, 0.116552, 0.112508, -0.110937, 0.110560, 0.104747, 0.094984, -0.029333, -0.002425, -0.047003, 0.001844, -0.118224, -0.100839, 0.003535, 0.145261, 0.014580, 0.008160, -0.190743, 0.123893, 0.208438, -0.008927, 0.294718, -0.108703, 0.004231, 0.038800, -0.078566, 0.281307, -0.050904, 0.081628, -0.109639, -0.047507, 0.224888, -0.194462, 0.142853, -0.113334, -0.074333, -0.101485, 0.062674, -0.001654, 0.438502, -0.039923, 0.117108, 0.164642, -0.112526, 0.035489, 0.110959, -0.071095, 0.175082, 0.125589, 0.071588, 0.167333, -0.008293, 0.095499, -0.032726, -0.115766, 0.017900, -0.153392, -0.123391, 0.070937, -0.185618, -0.027095, -0.064507, -0.003178, -0.137947, -0.045812, 0.017121, 0.056127, -0.209549, -0.080928, -0.022018, 0.138382, 0.016165, 0.063472, 0.010838, 0.019368, -0.048270, 0.111993, -0.063694, 0.035322, -0.133915, 0.110575, 0.055049, 0.000076, 0.002654, 0.055101, 0.142552, 0.085786, 0.057897, 0.040145, 0.010932, 0.042678, -0.038021, 0.007483, 0.002195, 0.027811, 0.012506, 0.024729, 0.023286, 0.054931, -0.013607, -0.106842, -0.097785, 0.082384, 0.103466, 0.050785, 0.078937, -0.018079, 0.008264, -0.061697, -0.005482, -0.092700, 0.140034, 0.102823, -0.167807, 0.031486, -0.023443, -0.148090, -0.093382, 0.038439, 0.109357, 0.107311, 0.020490, 0.049463, 0.081307, 0.086462, 0.109960, -0.015212, 0.113397, -0.037755, 0.076285, -0.110170, 0.036917, 0.101536, 0.013280, 0.039982, -0.105225, 0.012612, -0.037571, -0.170429, -0.076214, 0.009367, -0.052017, -0.090613, -0.119748, 0.120808, -0.084468, 0.031527, -0.112229, -0.098884, 0.122402, 0.038486, -0.039804, -0.024466, 0.008351, -0.082119, -0.135331, 0.001722, -0.017875, 0.133286, 0.032761, 0.035626, -0.029804, 0.031987, 0.062855, 0.025563, -0.003278, 0.108482, -0.045250, -0.003421, 0.024960, -0.106693, -0.073609, -0.080851, -0.028878, 0.073238, 0.111359, -0.011076, -0.158743, 0.205256, 0.060864, -0.040544, 0.053956, -0.108072, -0.015864, -0.072235, -0.089521, 0.037146, 0.090752, -0.131259, 0.115815, 0.017793, 0.081063, 0.064479, 0.129143, -0.115477, -0.014900, -0.033472, 0.108519, -0.062013, -0.012046, -0.113585, 0.060131, -0.056159, -0.054323, 0.066267, -0.052803, -0.048818, 0.069835, -0.036705, -0.053486, 0.211763, -0.017563, 0.019043, 0.012901, -0.042659, 0.030022, 0.076951, 0.021343, 0.005989, 0.110848, 0.094408, 0.011251, 0.027433, -0.057166, -0.037965, 0.007920, -0.027237, -0.143738, -0.168057, 0.160614, 0.076065, -0.026054, 0.011820, 0.080113, 0.033467, -0.087664, 0.031886, -0.126179, 0.107073, 0.053432, -0.159713, -0.006136, -0.041788, 0.053390, 0.146987, 0.062717, -0.150057, -0.086308, 0.007935, 0.075040, -0.011344, -0.158935, 0.058963, -0.003276, -0.049308, -0.035475, -0.035117, -0.026860, -0.055001, -0.019201, -0.029293, 0.069192, -0.003569, -0.028641, -0.016896, -0.204010, -0.092642, -0.118237, -0.085581, 0.119047, -0.085936, 0.017166, 0.036362, 0.065220, 0.101819, -0.068849, -0.117512, 0.060482, 0.006305, -0.143335, 0.050768, -0.022693, -0.121238, 0.058873, 0.120087, -0.057826, -0.123871, 0.067638, 0.060597, 0.129921, -0.011927, 0.036826, -0.079667, -0.002955, 0.009405, 0.092539, 0.027245, -0.082832, -0.056705, 0.013112, -0.049978, -0.041051, -0.120636, 0.045377, 0.017766, -0.026793, 0.117994, -0.055058, -0.105576, -0.055537, -0.072211, -0.049198, 0.120991, -0.083691, 0.153102, 0.107986, 0.137429, -0.020620, 0.116460, 0.011843, 0.013311, 0.120459, 0.048658, -0.073843, -0.036782, 0.090451, 0.123796, -0.060934, 0.027097, 0.022265, -0.142455, -0.029386, 0.107378, 0.080033, 0.049430, -0.035459, 0.031165, -0.051461, 0.215222, -0.083069, 0.049597, 0.072581, 0.054380, 0.043944, 0.080502, -0.026830, 0.100917, -0.070805, -0.034016, 0.084279, 0.058276, 0.061505, 0.116248, 0.018701, -0.044616, -0.048760, -0.102397, 0.057012, 0.097728, 0.105331, 0.023726, -0.084525, -0.007804, 0.066524, -0.124325, -0.041903, -0.036121, -0.009947, -0.035630, -0.075708, -0.003706, 0.083949, -0.084154, -0.066265, 0.076746, -0.066299, -0.066407, 0.079598, -0.027549, -0.107811, -0.046870, 0.024615, -0.096053, 0.001150, -0.117346, 0.110726, 0.055526, -0.070095, -0.025620, 0.111294, 0.019616, -0.110743, 0.055929, 0.007034, 0.038599, 0.063693, -0.051331, 0.132233, -0.088769, 0.060742, -0.098999, 0.083052, 0.013539, -0.056394, -0.055004, 0.153313, -0.115207, 0.070453, -0.072348, -0.074685, -0.129785, -0.043885, -0.022713, 0.131141, -0.025040, -0.035620, 0.068050, -0.024389, 0.004083, 0.174890, 0.029402, -0.002259, 0.007390, 0.058109, -0.034628, 0.085604, -0.094854, 0.080525, -0.063840, -0.044275, 0.022369, -0.032498, -0.086978, -0.067607, -0.040606, -0.030761, -0.031002, 0.019804, 0.129344, -0.058807, -0.029557, 0.066727, 0.128127, 0.015737, 0.094789, 0.062985, -0.053412, 0.088549, 0.056695, 0.067912, -0.083230, 0.061072, -0.064240, -0.017419, -0.086698, -0.091592, 0.002510, 0.073220, -0.020122, 0.027473, -0.065175, -0.078159, 0.036823, 0.037888, -0.111500, -0.024418, 0.121345, 0.062821, 0.079113, 0.049348, 0.070706, -0.133027, -0.129356, 0.067168, -0.147335, -0.014501, 0.121045, 0.007547, -0.076718, 0.076702, -0.108630, -0.073450, -0.054665, 0.008440, -0.135795, 0.016162, 0.147288, 0.013027, -0.111673, 0.075154, -0.002215, -0.088513, -0.077397, -0.057984, -0.050202, 0.154599, 0.056403, -0.024507, 0.042075, -0.049095, -0.030721, -0.077166, -0.096312, -0.108996, 0.016956, -0.047127, 0.081550, 0.002083, -0.090128, -0.052244, 0.104962, 0.045836, -0.097062, -0.059358, 0.113922, -0.003127, -0.065530, 0.056162, 0.117014, -0.014123, 0.090472, -0.004597, -0.039458, 0.068512, 0.090850, 0.099401, -0.035825, -0.108969, 0.001625, -0.031555, 0.104776, -0.041529, -0.106072, 0.016630, 0.089719, -0.001656, 0.057617, -0.091794, 0.122089, -0.008699, 0.092950, 0.093972, -0.043087, 0.064432, 0.091376, 0.032090, -0.136935, -0.063867, -0.247776, -0.053808, 0.175776, 0.043127, 0.095340, 0.057840, -0.011741, -0.061068, -0.088081, -0.063666, 0.071501, 0.143405, 0.081010, -0.126290, -0.089180, -0.032822, -0.091001, -0.100603, 0.075902, 0.108480, -0.149251, 0.058897, 0.110966, -0.073289, -0.032084, -0.011140, -0.041536, -0.017304, 0.017009, -0.061467, 0.021102, -0.120358, -0.114172, 0.015463, -0.029352, 0.077841, -0.037333, -0.021164, -0.074155, -0.029417, 0.001026, 0.082383, 0.075288, 0.001265, -0.106577, -0.047992, 0.139201, 0.061964, 0.092862, 0.088736, -0.048009, -0.057732, 0.048159, 0.040622, 0.040598, 0.027039, 0.060682, -0.145998, 0.059159, -0.071438, -0.081128, 0.069269, 0.116915, 0.051235, -0.036443, -0.024921, 0.094282, -0.031194, -0.102096, -0.004977, -0.060446, 0.038241, -0.136851, -0.043915, -0.123926, -0.018636, 0.010740, -0.092219, 0.077658, 0.050960, -0.018144, -0.078871, -0.001813, 0.033764, -0.002675, -0.076785, 0.091287, 0.157061, 0.116382, 0.039468, 0.063079, 0.001910, 0.104868, 0.099876, -0.033600, -0.036215, 0.095105, -0.025927, 0.131657, -0.036833, -0.100336, 0.027864, -0.019355, -0.028449, 0.036201, 0.027641, 0.091205, -0.065070, 0.023481, 0.081295, 0.078082, -0.084194, -0.041727, -0.052990, 0.015426, 0.030707, -0.019649, -0.059620, -0.063589, -0.068908, 0.038623, -0.023365, 0.044869, 0.084172, -0.136312, 0.084048, 0.057776, -0.034495, -0.055383, 0.110334, 0.007489, 0.093642, 0.085489, 0.025435, -0.028229, 0.052411, -0.020128, 0.009726, -0.021687, 0.003263, 0.003695, 0.003074, 0.109968, 0.028658, 0.058181, -0.039220, -0.032652, -0.065339, 0.005366, -0.008959, 0.142262, 0.019989, -0.113021, -0.023466, -0.094594, -0.069097, -0.043507, 0.032776, -0.042990, -0.003156, -0.038730, 0.034242, 0.125947, -0.061527, -0.095556, -0.115756, -0.104437, -0.013969, -0.036469, 0.048570, 0.135940, -0.130233, -0.038362, 0.091036, 0.105053, 0.050993, -0.074802, -0.022885, 0.027438, 0.027895, -0.105584, -0.089200, 0.015714, 0.032855, -0.036016, 0.016084, 0.046625, 0.040546, -0.114280, -0.080116, -0.091539, 0.159823, 0.011403, 0.043173, 0.071928, 0.097743, 0.017006, 0.012473, 0.047181, -0.022778, -0.040737, 0.010756, 0.056692, 0.090878, -0.070071, -0.082730, 0.048928, 0.084783, -0.118867, 0.031378, 0.002066, -0.052815, -0.014909, -0.012858, -0.008802, -0.061757, 0.119677, -0.106231, 0.020918, 0.034296, 0.030001, 0.001659, -0.015810, 0.009041, -0.079117, 0.076986, -0.101285, 0.011184, 0.025976, -0.092653, 0.132205, -0.107107, 0.003384, 0.168608, -0.086146, 0.082726, 0.084237, 0.053768, 0.033834, -0.053568, 0.012884, 0.073648, 0.116514, -0.013490, -0.006798, 0.097818, 0.089424, 0.063578, 0.081339, -0.082706, -0.037343, 0.002121, 0.073344, -0.068825, 0.003208, 0.114124, -0.146625, 0.019033, 0.069698, 0.010392, 0.091899, -0.023073, -0.070388, 0.026876, -0.003119, 0.047796, -0.037337, 0.056998, -0.098238, -0.115482, 0.083391, 0.140178, 0.034028, -0.126697, -0.070386, 0.035130, 0.040222, 0.048203, 0.057682, -0.069831, -0.131118, 0.026811, 0.016317, 0.050783, 0.013252, 0.039195, 0.030224, 0.052012, -0.129733, -0.025890, -0.090656, 0.105735, -0.005667, 0.007960, -0.046794, 0.076990, 0.117556, -0.095115, -0.120960, 0.059079, 0.084697, 0.001769, 0.085301, -0.094886, -0.128096, -0.022505, 0.080631, 0.022742, 0.068578, -0.043530, 0.025178, 0.057432, 0.075522, -0.044733, -0.080260, 0.135550, 0.104733, 0.242154, -0.051347, -0.117637, -0.222277, 0.111184, 0.009527, 0.141552, 0.093836, 0.152090, 0.020415, -0.107669, 0.074506, -0.046558, -0.002331, 0.042767, -0.063384, -0.060191, 0.083427, -0.113463, -0.005854, 0.051557, -0.115721, -0.064130, 0.034213, 0.085518, 0.008716, -0.082386, -0.055416, 0.164383, -0.057986, 0.114670, -0.115254, -0.048135, -0.077917, -0.161498, -0.016477, -0.046997, 0.057395, 0.023568, -0.022868, -0.227209, 0.013731, 0.166927, -0.035998, -0.033305, -0.004686, -0.089735, -0.112541, -0.052908, 0.116633, 0.014818, -0.028232, 0.119170, -0.053977, -0.082619, 0.023359, 0.091300, 0.053676, -0.003078, 0.074480, 0.025983, 0.024830, -0.095492, -0.101009, -0.022043, -0.092648, -0.099892, -0.009017, -0.055176, 0.066090, -0.030421, 0.056916, -0.067877, -0.008480, -0.092032, -0.089922, 0.010759, 0.073478, -0.030371, 0.159716, -0.016517, 0.006006, 0.105790, 0.110709, -0.111365, 0.028461, 0.107900, -0.079542, 0.102675, -0.004451, 0.027347, -0.131628, 0.105161, 0.025977, -0.038840, 0.050095, -0.047839, -0.035152, 0.138511, 0.045061, 0.105217, 0.237267, -0.046060, -0.027600, -0.091999, 0.041788, -0.021860, -0.094226, -0.046348, -0.105608, 0.114786, 0.056258, -0.065605, 0.288314, 0.077392, 0.071951, 0.041610, -0.032949, -0.098079, -0.103903, 0.041261, 0.280286, 0.020308, -0.038466, -0.197383, -0.061657, 0.008584, -0.342369, 0.012396, -0.051366, -0.040286, -0.070825, 0.118204, 0.037434, 0.229884, -0.089945, -0.069094, 0.015597, -0.017671, -0.037081, -0.034839, 0.171625, -0.044316, 0.057706, 0.044136, 0.313257, 0.059749, 0.142510, 0.058567, -0.248153, 0.052732, 0.015648, -0.094473, 0.186457, 0.074084, 0.056412, -0.104244, 0.005303, -0.009789, -0.028453, -0.004770, 0.031684, -0.023129, 0.056620, 0.024599, 0.206241, -0.156070, -0.039311, 0.175742, 0.078143, -0.118805, -0.127411, -0.000866, 0.159961, -0.233202, 0.183496, 0.011827, 0.210770, -0.011290, 0.022423, 0.186309, 0.007778, -0.154191, 0.056670, -0.114037, 0.234256, -0.024569, 0.085641, -0.129606, 0.085978, -0.100504, -0.105079, 0.113046, -0.217575, 0.034721, -0.216247, 0.238558, 0.157777, 0.163964, 0.070814, -0.049624, 0.146515, 0.080231, -0.024754, -0.123872, 0.162042, -0.084278, -0.145398, 0.151507, 0.139645, 0.005154, 0.260295, -0.008586, -0.290947, 0.178249, -0.207425, -0.078828, 0.167052, -0.064982, -0.082032, -0.101178, 0.111861, -0.228286, 0.034466, 0.035634, 0.086429, -0.032183, 0.001816, -0.055041, 0.305479, -0.047856, 0.064431, -0.070075, 0.126769, -0.105583, 0.140576, 0.008343, -0.183135, 0.077170, -0.099884, 0.190360, 0.009944, -0.070239, 0.016896, -0.000389, -0.038793, -0.032305, -0.077667, 0.047257, -0.010994, -0.021865, 0.150249, 0.058925, -0.056246, 0.035296, 0.206246, -0.003018, 0.154569, 0.009843, -0.075367, 0.063168, 0.079015, -0.043455, -0.122943, 0.116557, -0.017243, -0.044119, 0.060293, 0.045362, -0.105342, 0.150150, -0.120422, -0.192374, 0.083375, 0.027409, -0.173770, 0.055224, 0.051014, -0.016860, -0.058050, -0.108637, -0.124847, 0.096161, 0.017181, 0.223816, -0.137441, 0.026010, 0.035090, 0.003550, -0.175939, 0.016292, 0.067166, 0.021245, -0.073365, -0.006655, 0.060367, 0.002127, 0.068971, -0.006375, 0.049218, 0.010717, -0.058452, 0.004455, -0.101421, -0.098540, 0.111696, 0.003296, 0.066151, 0.077468, 0.098072, 0.053045, 0.006553, -0.121095, -0.101761, -0.005941, -0.025404, -0.049735, -0.063515, 0.078165, -0.033046, -0.054713, -0.026876, -0.029080, -0.130542, 0.084472, -0.080205, 0.011508, -0.053965, -0.019847, -0.009121, 0.052838, -0.017856, 0.008396, 0.125185, -0.078566, -0.053975, 0.028649, 0.051197, 0.028108, -0.115139, 0.020149, 0.011743, 0.035117, 0.057676, 0.001884, 0.012508, 0.106488, -0.071585, -0.001356, -0.048708, -0.016190, 0.015109, -0.079892, -0.099237, -0.026335, -0.081546, -0.053123, 0.126530, -0.028332, 0.060043, -0.008326, -0.143706, 0.044663, 0.037332, -0.009605, -0.146756, 0.190372, -0.163170, -0.142801, 0.262163, 0.063606, -0.077650, -0.086084, -0.031386, -0.084535, 0.042195, -0.027788, 0.182759, 0.154137, 0.105778, 0.055649, -0.185805, 0.147643, 0.128543, 0.110603, 0.052131, -0.137301, -0.201029, 0.087922, 0.092809, -0.018318, 0.057251, 0.124208, 0.097287, 0.075621, 0.077621, -0.044257, 0.087082, -0.025496, -0.096938, 0.120339, -0.053753, -0.048820, -0.018256, -0.067805, -0.035513, -0.149871, -0.043080, -0.123124, -0.074398, -0.080057, 0.135761, -0.033867, 0.014516, -0.187884, -0.027780, -0.079780, 0.050381, -0.163758, 0.087187, 0.032308, -0.009998, 0.118744, -0.040115, -0.058143, 0.074603, 0.065862, 0.039145, -0.062503, -0.237213, 0.071430, 0.004688, 0.024387, 0.099383, -0.079447, 0.077226, 0.036363, -0.075213, 0.003837, -0.097260, -0.114281, -0.012529, -0.013185, -0.040928, 0.017543, -0.062429, 0.057172, 0.126326, 0.078414, 0.027754, 0.118229, -0.092022, -0.214719, -0.089040, -0.084007, -0.057634, -0.045430, 0.060902, -0.056793, -0.122286, 0.037574, 0.019854, 0.175974, 0.087541, 0.070463, -0.015353, 0.110412, -0.213417, 0.070414, -0.127305, -0.158447, 0.096907, -0.035952, 0.057607, 0.104875, 0.109200, -0.057120, 0.098105, 0.207652, 0.061547, 0.117467, -0.158089, -0.086113, -0.089968, -0.149889, 0.065658, -0.107116, -0.042891, -0.129394, -0.090316, -0.001784, 0.050299, 0.040045, 0.052878, 0.051122, 0.002546, 0.014953, 0.011343, -0.151581, 0.068390, 0.027009, 0.179273, -0.052529, -0.128659, 0.010593, -0.018710, 0.052889, 0.022744, 0.199274, 0.025204, 0.091803, 0.063004, 0.032866, -0.031208, 0.019670, 0.019877, -0.174840, 0.031694, 0.010839, 0.084561, 0.183572, 0.025259, -0.011041, -0.029520, -0.014025, 0.071242, 0.009841, -0.104627, -0.148361, 0.051358, 0.142816, -0.129798, 0.076390, 0.044226, 0.138867, -0.011561, 0.013232, 0.042254, 0.017061, -0.032557, 0.022558, -0.045097, -0.018032, 0.017951, 0.050105, -0.111580, 0.010621, -0.139175, 0.036407, -0.107044, -0.058486, -0.119146, -0.036001, -0.051757, 0.145218, -0.089629, -0.071083, 0.005159, -0.103883, 0.000565, -0.024191, 0.098735, 0.106979, 0.026821, 0.026588, -0.086052, -0.010261, -0.042898, 0.027419, -0.148615, 0.039282, -0.095160, 0.073062, 0.049019, -0.040889, 0.072149, -0.133136, 0.070681, 0.049793, -0.023309, 0.040161, 0.040281, 0.073530, -0.080938, -0.020894, -0.056976, -0.019136, -0.002692, -0.058469, -0.007192, -0.132464, 0.142476, 0.099687, -0.177709, 0.013937, 0.044595, 0.015746, 0.178992, 0.101662, -0.093094, 0.096287, 0.038221, -0.010100, -0.002237, 0.010191, 0.078434, 0.034193, -0.017902, 0.014856, 0.099286, 0.034379, -0.103243, 0.057989, -0.018424, 0.041672, 0.048814, -0.033705, -0.051175, 0.000325, 0.073027, 0.094107, 0.004741, 0.058435, -0.092167, 0.051084, 0.076625, -0.049640, 0.003511, 0.072638, 0.010843, 0.065282, -0.009328, 0.011340, -0.048809, -0.060717, 0.106568, 0.045956, 0.116639, 0.033475, 0.062460, -0.071733, 0.054803, 0.054037, -0.114028, -0.150016, 0.030797, -0.046678, 0.020983, 0.110992, 0.013678, 0.015239, -0.074939, 0.086407, -0.057735, -0.031617, 0.029688, -0.030549, 0.096402, -0.088073, -0.130089, -0.068388, 0.021785, 0.042763, -0.045231, -0.101027, -0.024189, -0.041793, 0.102775, 0.015541, 0.134920, 0.134771, 0.024530, -0.070366, -0.036398, 0.051446, 0.087487, -0.099745, -0.085857, -0.164169, -0.006941, -0.155158, -0.033036, -0.097246, -0.030463, -0.018736, 0.092881, -0.131394, -0.256557, -0.036159, 0.144236, 0.027979, 0.055280, 0.190751, 0.001451, 0.094056, 0.088976, -0.010463, -0.216328, -0.072471, -0.114427, 0.211817, 0.053416, -0.104198, 0.082898, 0.027398, -0.070331, 0.003549, -0.071358, -0.144800, -0.059757, -0.229005, -0.115034, -0.017748, -0.039405, -0.054731, -0.104962, 0.075299, 0.025460, 0.068861, -0.165222, -0.135613, -0.057186, 0.170396, -0.157479, 0.017123, 0.190294, 0.109686, 0.138560, 0.092633, 0.063044, 0.001012, -0.105395, 0.066743, 0.106474, -0.072364, 0.019689, 0.157839, -0.042377, 0.148040, 0.020442, 0.078605, -0.002468, -0.033480, -0.039225, 0.019197, 0.060558, 0.029150, 0.016494, 0.059476, -0.064715, 0.143273, -0.013963, 0.114508, 0.093535, 0.093470, 0.059631, 0.107298, 0.085032, 0.121618, -0.058803, -0.071690, 0.073670, -0.016817, 0.126277, 0.073668, -0.066960, 0.046754, 0.099369, 0.142831, 0.123465, 0.020905, -0.026068, -0.113902, 0.044231, -0.031829, -0.059874, -0.048555, -0.112335, -0.033491, -0.107570, -0.030543, -0.074842, 0.105311, -0.103173, -0.098193, 0.032135, 0.022600, -0.100258, -0.037647, 0.042734, -0.044464, 0.136134, 0.090464, 0.073377, 0.139989, -0.014142, 0.017440, -0.006369, 0.175592, -0.009950, 0.050170, -0.094918, -0.007584, 0.058833, -0.127252, 0.043032, 0.078660, -0.064739, -0.062772, 0.095633, 0.111895, 0.077417, 0.118249, -0.039016, -0.104939, -0.138321, 0.053425, 0.057460, 0.060145, 0.088532, 0.074543, 0.022657, 0.043390, 0.066130, 0.061451, -0.025288, -0.095726, -0.094194, 0.079105, 0.039847, 0.110480, 0.054331, 0.033423, -0.022670, 0.043742, -0.147260, 0.003033, 0.153242, 0.059435, 0.043966, -0.017211, 0.127236, 0.009592, -0.148896, -0.125767, 0.070811, 0.021180, 0.118350, -0.002447, -0.067257, 0.017300, -0.053235, -0.085744, 0.081421, 0.071186, 0.041949, 0.025343, 0.055894, -0.009634, 0.074126, 0.002140, -0.001422, 0.024270, 0.020877, -0.038762, 0.034820, 0.108595, 0.064354, -0.050791, 0.037424, -0.083303, -0.067832, 0.045367, 0.132108, -0.032223, 0.138607, -0.017520, -0.014258, 0.049720, 0.043127, 0.146337, -0.091591, -0.048578, 0.070124, 0.110759, -0.034343, -0.025373, -0.088351, -0.061423, -0.080351, 0.036955, -0.016602, -0.056751, 0.008056, -0.012410, 0.023018, -0.097521, 0.090494, 0.042320, 0.047490, -0.070897, 0.004792, -0.069314, -0.104926, -0.018188, -0.117456, -0.123686, -0.098603, -0.071476, 0.091215, 0.025241, -0.002162, -0.108375, 0.091492, 0.044362, -0.071723, 0.031678, 0.077001, -0.097114, 0.059789, 0.023437, 0.047124, 0.057569, -0.071982, 0.118511, 0.156793, 0.103878, -0.111040, 0.080759, -0.113964, -0.013327, -0.128115, -0.080562, 0.106072, 0.018833, -0.118616, 0.075557, 0.086643, -0.053402, 0.027845, -0.037831, -0.058382, 0.074538, 0.152272, -0.066001, -0.068817, -0.075396, 0.081443, 0.127360, 0.150670, -0.148736, -0.102186, -0.039319, 0.124889, 0.223523, 0.229261, -0.143637, 0.038089, -0.089657, 0.005132, 0.100278, 0.058441, -0.043654, 0.158661, 0.017841, -0.004360, 0.115298, 0.024262, -0.035929, 0.039970, -0.020902, -0.037775, -0.082774, -0.125541, 0.122149, -0.036948, 0.033793, 0.193908, -0.021297, 0.086562, 0.074698, -0.232481, -0.099349, 0.037608, -0.004143, -0.011325, 0.126938, -0.100938, 0.102843, 0.059932, 0.084708, 0.022304, 0.116753, -0.192316, -0.190193, 0.038532, -0.164995, -0.001451, -0.100482, -0.138253, 0.140964, -0.080618, 0.013987, -0.000953, 0.053864, -0.147410, -0.037814, -0.119175, -0.114114, 0.132729, -0.038921, 0.009236, 0.126296, 0.211946, -0.019782, -0.095553, 0.016739, 0.025743, -0.015751, 0.173764, 0.133815, 0.013778, 0.200138, 0.100212, 0.036365, 0.027409, -0.034973, -0.052054, 0.081700, 0.164286, -0.095212, 0.039932, 0.027928, 0.045125, 0.052532, 0.001370, 0.009949, 0.140585, 0.106852, -0.053890, 0.095386, -0.044526, 0.097271, -0.012058, -0.010970, 0.061955, -0.104201, 0.081416, -0.054579, -0.085330, 0.149991, -0.095028, 0.121610, -0.005429, -0.067756, -0.106202, 0.044456, 0.008023, -0.093588, 0.033860, -0.139390, 0.132558, -0.014871, 0.074331, -0.062464, 0.087625, -0.012071, -0.128412, 0.137467, 0.188842, -0.095865, -0.026606, -0.089288, 0.181159, 0.110360, -0.067541, 0.029294, -0.087737, 0.105775, -0.089606, 0.055341, -0.138558, 0.028526, -0.093291, 0.161831, 0.001732, 0.013768, -0.149616, -0.102350, 0.083310, 0.120987, 0.029163, -0.150095, -0.086220, -0.171653, 0.015712, -0.048653, -0.044547, -0.044140, -0.103811, 0.019308, 0.130680, -0.088106, 0.049596, -0.116308, 0.022277, 0.086780, -0.007822, -0.024649, -0.003660, 0.174913, 0.110103, -0.090817, -0.087139, 0.063792, 0.086305, 0.018526, 0.068796, -0.086509, 0.058541, 0.056704, 0.130109, 0.220821, 0.089213, 0.006109, -0.002993, -0.166494, -0.100918, 0.092587, 0.049250, -0.051538, -0.080042, -0.116129, -0.096457, -0.072141, 0.385504, -0.091281, 0.000171, -0.191385, -0.129455, 0.134173, 0.113865, -0.080793, 0.011517, 0.069963, 0.321562, 0.156521, 0.254226, -0.176057, -0.095246, -0.079443, -0.282401, -0.022284, -0.143422, 0.046933, -0.057119, 0.149644, 0.066285, 0.373597, 0.055406, -0.222063, 0.069964, -0.020084, 0.029606, -0.090413, -0.082890, 0.104815, 0.015126, 0.096695, 0.169816, -0.250961, 0.370942, -0.088518, -0.276796, -0.080514, -0.055409, -0.075398, 0.100011, 0.169578, -0.187143, -0.185896, 0.178322, 0.153681, -0.036108, 0.130361, -0.170563, -0.121072, -0.000420, -0.134326, 0.257672, -0.021695, -0.111503, 0.011140, 0.161902, -0.018013, -0.093930, 0.051988, 0.031533, -0.006977, 0.079825, -0.077271, 0.017058, 0.102876, -0.079816, 0.272573, 0.008237, -0.063367, -0.094631, -0.010338, 0.176584, 0.191930, -0.057529, -0.032944, -0.063493, -0.147130, -0.224855, 0.022901, -0.245975, -0.117157, -0.137106, -0.050475, -0.080360, 0.202959, 0.078889, -0.054919, 0.067836, 0.080892, 0.025411, -0.043112, 0.072528, 0.052422, 0.051792, 0.025936, -0.005407, -0.109733, 0.083066, -0.060284, 0.002717, 0.000195, -0.222437, 0.093780, -0.018927, -0.064528, -0.030123, 0.019264, 0.052517, -0.036270, -0.081203, 0.120156, -0.088783, 0.059378, 0.061069, 0.025929, 0.074020, -0.057180, 0.085288, 0.033004, 0.020049, -0.038706, 0.085268, 0.024585, -0.069004, 0.094113, -0.148980, 0.016936, 0.124617, -0.042605, 0.042726, -0.098118, -0.087709, 0.110908, -0.051175, 0.059458, -0.122408, -0.035346, 0.015606, 0.204736, -0.025476, 0.025311, 0.013750, 0.058866, 0.141077, 0.107436, -0.043166, -0.098376, -0.110374, -0.026260, 0.088634, 0.058060, -0.047256, 0.065135, -0.140476, -0.078118, -0.211079, 0.128575, 0.021943, -0.164326, -0.063407, 0.044991, -0.137501, 0.005617, -0.021391, 0.003565, 0.179061, -0.051508, -0.144094, 0.157536, 0.156610, 0.044063, -0.141157, 0.037592, 0.007080, -0.013995, -0.142491, 0.063274, -0.104296, 0.143681, -0.013456, -0.072208, -0.111276, -0.036397, 0.017705, 0.059081, -0.005269, -0.090389, -0.003933, -0.021847, 0.007836, 0.082217, -0.159230, -0.058606, -0.092733, 0.186769, 0.057766, 0.062385, 0.070367, -0.124250, 0.005720, 0.016601, -0.003158, 0.132417, 0.080722, -0.031705, 0.036020, 0.033220, -0.021122, -0.080655, -0.047336, 0.013923, -0.087437, 0.123012, -0.095167, 0.029676, -0.052520, -0.015739, -0.137221, 0.051408, 0.017326, 0.026078, -0.032193, -0.031194, -0.075313, 0.047833, 0.121003, 0.031085, 0.070950, 0.127695, -0.039193, 0.024491, 0.011006, 0.033365, -0.095024, 0.151514, -0.036729, 0.137490, -0.025825, 0.099030, 0.063877, 0.102593, -0.084353, 0.021988, -0.067711, 0.065298, -0.153026, -0.007083, -0.017493, 0.097660, -0.061306, -0.079074, -0.093052, -0.081613, 0.040940, 0.139308, 0.205861, 0.134699, -0.005979, 0.135625, 0.140294, -0.024955, 0.026012, 0.103191, 0.052980, -0.075495, 0.155142, -0.050839, -0.047839, 0.131656, 0.181016, 0.079533, 0.010365, -0.100135, -0.091291, 0.164520, 0.153953, 0.155251, -0.077256, 0.261456, 0.213859, -0.096972, 0.070644, 0.015455, 0.022092, 0.118200, -0.083224, 0.195045, 0.049741, 0.022006, 0.008043, 0.042332, 0.105035, 0.000638, -0.003267, -0.015504, 0.050536, 0.111915, 0.014373, -0.050240, 0.168172, -0.135285, 0.055519, -0.048613, 0.069455, -0.071038, 0.019894, -0.287787, 0.122977, -0.178533, 0.015563, -0.206793, -0.103819, 0.084735, -0.031808, -0.069688, 0.037774, 0.082009, -0.048097, -0.116721, 0.015328, 0.077312, -0.109092, 0.160967, 0.005915, 0.006629, -0.038999, -0.077898, 0.021481, 0.083457, -0.083159, 0.079457, -0.049594, 0.104079, 0.032637, 0.005572, -0.033636, 0.000827, 0.060004, -0.175551, -0.118721, 0.001754, -0.081170, 0.034212, 0.104542, -0.101678, 0.017072, 0.051154, 0.035385, 0.121915, 0.007700, -0.046384, 0.013186, -0.034691, -0.074040, 0.004152, 0.068447, 0.031050, -0.059365, -0.103144, 0.037554, -0.051736, 0.129973, -0.022298, 0.007206, 0.152022, -0.120993, 0.097791, 0.000385, -0.072573, 0.071202, -0.005167, 0.100398, -0.055550, 0.023810, -0.002354, 0.086770, 0.182551, 0.108627, -0.016502, 0.037453, -0.105136, -0.205013, 0.059410, -0.125950, -0.015455, 0.011479, -0.056411, 0.024803, -0.002909, -0.053957, 0.073667, -0.143758, 0.076075, 0.042120, 0.146131, 0.015952, 0.073733, 0.155696, -0.051036, 0.188728, -0.077653, 0.050513, -0.065960, 0.054233, -0.170732, -0.036591, -0.062861, 0.023721, -0.046028, 0.057381, -0.017664, 0.071648, -0.033449, -0.047677, -0.104269, -0.017894, -0.015538, -0.128527, 0.035733, 0.173542, 0.067105, 0.176774, -0.100967, -0.184214, 0.121181, -0.040540, 0.215638, 0.070581, 0.108887, -0.045374, -0.022631, -0.038269, 0.097668, -0.034213, -0.060040, -0.068113, 0.038429, -0.033772, -0.012138, -0.016184, 0.002929, -0.177563, 0.149045, 0.118128, -0.079230, 0.130072, -0.203004, -0.132281, 0.184860, -0.118149, -0.022657, -0.017388, -0.006053, -0.004097, 0.038682, 0.127765, -0.069528, -0.045915, -0.120098, 0.113833, -0.000331, -0.043779, -0.123203, 0.082854, -0.055638, 0.110517, 0.029995, 0.040137, 0.108941, 0.078163, -0.141002, -0.112620, 0.058330, -0.012386, 0.095728, -0.036219, 0.039759, 0.105044, 0.164873, -0.081429, -0.027358, 0.022884, -0.097016, 0.006894, 0.075813, 0.084617, 0.018191, 0.064716, -0.047219, 0.120535, -0.143799, 0.075823, 0.028764, -0.017193, 0.095068, 0.166680, -0.048374, -0.084848, 0.111174, -0.068825, 0.154026, -0.104775, 0.070765, -0.111481, 0.000571, 0.119327, -0.045893, -0.052124, -0.114805, -0.007250, -0.115703, 0.176291, -0.069712, 0.000303, -0.040078, -0.020084, 0.108148, -0.105958, 0.015888, -0.016514, 0.028366, 0.075174, 0.054299, -0.088366, -0.094200, 0.023901, 0.098570, 0.024377, -0.056826, 0.085915, -0.157794, -0.003355, -0.053366, 0.003298, 0.049839, -0.035517, 0.013968, -0.102658, -0.049260, 0.058309, 0.029655, -0.001152, 0.041157, -0.114715, 0.125731, -0.191628, -0.104760, 0.118057, -0.023800, -0.080749, -0.084590, -0.166576, 0.072481, 0.054962, 0.031355, -0.053973, -0.034375, -0.029289, -0.082734, 0.087569, -0.066508, 0.015257, 0.064742, -0.012339, -0.117310, 0.056397, 0.104998, -0.109640, 0.104099, -0.075828, -0.023950, 0.143578, 0.041939, -0.102505, 0.010320, -0.120712, -0.007173, 0.057274, 0.096815, 0.066323, -0.066630, -0.057768, 0.093804, -0.011371, -0.140716, -0.145498, 0.147633, 0.071842, 0.096811, 0.192790, -0.081733, -0.074866, 0.034856, -0.046274, 0.038291, 0.012189, -0.238820, -0.087721, 0.109888, -0.047492, 0.025948, -0.064071, -0.079510, 0.086391, -0.022933, -0.038741, 0.055526, -0.137923, 0.204684, -0.245559, 0.034684, 0.150856, -0.029209, 0.021833, 0.000468, 0.066856, -0.003351, -0.022368, 0.128870, 0.058076, 0.012257, -0.099846, 0.016588, 0.110434, -0.026223, 0.051328, -0.088840, -0.002105, 0.112521, -0.113815, -0.045924, -0.116068, 0.053426, 0.084340, -0.078633, 0.000992, 0.095076, 0.027275, -0.046360, 0.009438, 0.001503, 0.058581, -0.069596, 0.130184, 0.119566, -0.099485, -0.013022, -0.081858, -0.100935, 0.032726, 0.067832, 0.049378, -0.042538, 0.146423, 0.041932, -0.053913, 0.029744, 0.137177, 0.079785, -0.011677, -0.056639, -0.017451, 0.104396, -0.051843, 0.015464, 0.047987, -0.113201, 0.052916, 0.124655, 0.000922, -0.012770, -0.100168, 0.095529, -0.140871, 0.020576, 0.153427, -0.031498, 0.143608, -0.040342, -0.049289, 0.104821, 0.038493, 0.135672, -0.015139, 0.059070, -0.044164, 0.037495, -0.012968, -0.047342, -0.053283, 0.067421, -0.081746, -0.130352, 0.058088, 0.085079, -0.104293, -0.014246, -0.113341, 0.061027, 0.000907, -0.012746, 0.104090, -0.107379, -0.107484, 0.032483, -0.033578, 0.119821, 0.187942, -0.033147, 0.013036, -0.046124, 0.092827, 0.076302, -0.052226, 0.082726, 0.097039, 0.033745, -0.059716, 0.048927, -0.051562, 0.014425, -0.101650, 0.007925, 0.104357, 0.130632, -0.011401, 0.104340, 0.096711, 0.032098, -0.091477, -0.050514, 0.002102, 0.054858, -0.083841, 0.055546, -0.104796, 0.020474, -0.060002, 0.024898, 0.167181, 0.103037, -0.031127, -0.025385, 0.097118, -0.021639, 0.112445, -0.012700, -0.029933, 0.091193, -0.049744, 0.108218, 0.072513, -0.071934, -0.107262, 0.021069, 0.000864, -0.111862, 0.080596, -0.046936, 0.086434, 0.038288, -0.158134, -0.001393, 0.046256, -0.176961, 0.100454, 0.063942, -0.259842, -0.116238, 0.060469, 0.170260, 0.007927, -0.234354, -0.058490, 0.082416, 0.247830, 0.107159, 0.041363, -0.060128, 0.072247, -0.123423, -0.061822, -0.012420, -0.128075, 0.015388, 0.111039, 0.025404, 0.154638, 0.183248, -0.085889, -0.090867, 0.134903, -0.084513, 0.089204, 0.087775, -0.027233, 0.177919, -0.047410, 0.001461, 0.007310, -0.006185, 0.308363, -0.095639, -0.169082, 0.115889, -0.219127, 0.042439, 0.103053, -0.007730, -0.054289, -0.124889, 0.087732, -0.044788, -0.031505, -0.067503, -0.034763, 0.111557, 0.005460, 0.086205, 0.105702, -0.000364, -0.082446, 0.180283, 0.106663, 0.107630, 0.171479, -0.344380, -0.098041, 0.025348, 0.138734, 0.243369, 0.070315, -0.182705, 0.066232, 0.093002, 0.036240, -0.058932, 0.025355, -0.016919, 0.238809, 0.018653, 0.384877, 0.019426, -0.243874, 0.124426, 0.114984, 0.261877, -0.190043, -0.144920, -0.009582, 0.209450, 0.331365, 0.276553, 0.083122, 0.142438, 0.148184, -0.107454, 0.010963, 0.073836, -0.250245, 0.259230, -0.216557, -0.160484, 0.314505, -0.373889, 0.090603, -0.005741, -0.078808, 0.130153, -0.273810, 0.042119, 0.093878, -0.058622, -0.153300, 0.050765, 0.211201, -0.081486, 0.049012, -0.019364, -0.024272, -0.135065, 0.032513, -0.187741, 0.356773, -0.092346, -0.038414, -0.092283, -0.196867, 0.022866, 0.028931, 0.185134, 0.025953, -0.041642, -0.100335, -0.044449, -0.043917, 0.037385, -0.012180, -0.023343, -0.017190, 0.051395, 0.000889, 0.043588, -0.106642, 0.008251, -0.064309, 0.186605, 0.081805, 0.115510, 0.030877, 0.063968, 0.061105, 0.048895, -0.204563, -0.045628, 0.059921, -0.236134, 0.088548, 0.098831, -0.060703, -0.097446, -0.068670, -0.109312, 0.102796, 0.000365, 0.067523, 0.043976, -0.134501, 0.106882, -0.302872, -0.120487, 0.115366, -0.044617, 0.016615, -0.037919, 0.013163, -0.022304, 0.090963, 0.086987, -0.166353, 0.003159, 0.070990, -0.079029, 0.033011, -0.056697, 0.000079, 0.160098, -0.209360, 0.041333, -0.000381, -0.131692, 0.074409, -0.036676, -0.038366, -0.080500, 0.152258, -0.101117, -0.105036, -0.004558, -0.026309, 0.037076, 0.010465, -0.097838, 0.124112, 0.089708, -0.024790, -0.025311, 0.163189, 0.017019, -0.015207, 0.035865, -0.030318, -0.009990, -0.035952, 0.011351, -0.124433, 0.001551, -0.109291, 0.001889, 0.067496, -0.022616, 0.005886, -0.050309, 0.021649, 0.043001, -0.089976, 0.001560, -0.010173, 0.074560, 0.136490, -0.025964, -0.062981, 0.053231, -0.086374, 0.087896, 0.046546, -0.037970, 0.008943, 0.041662, -0.015375, -0.090464, 0.059135, 0.078194, 0.024830, -0.073860, 0.005944, -0.012907, -0.031063, 0.087836, 0.069510, 0.070401, -0.048468, 0.031859, 0.025619, 0.063053, 0.069994, 0.273861, -0.064629, -0.227911, -0.152121, -0.031489, 0.176406, 0.059520, 0.023385, 0.034601, -0.113451, -0.024154, -0.030727, -0.017901, 0.087294, 0.013706, 0.255331, 0.139958, 0.197110, -0.137954, -0.079678, 0.128002, -0.157461, 0.145275, -0.152350, -0.121893, -0.056239, 0.080107, 0.047130, 0.359173, -0.068432, -0.107385, 0.189874, -0.111136, 0.079292, 0.065760, -0.090263, 0.095916, 0.051410, 0.041978, 0.162919, -0.175533, 0.311813, -0.080886, -0.301037, -0.073401, -0.101015, -0.098189, -0.040021, 0.010299, 0.040255, -0.116469, 0.129961, -0.037061, -0.070637, 0.147580, -0.162907, -0.102221, 0.015189, -0.357035, 0.279225, 0.162610, -0.112694, -0.155850, -0.040145, -0.046373, -0.044108, 0.011512, 0.105877, -0.055503, 0.123520, -0.061562, -0.170103, -0.066315, 0.062478, 0.142985, 0.075471, -0.055539, -0.068089, -0.006967, 0.176269, 0.087245, 0.082571, -0.025734, 0.057831, -0.020010, 0.050614, 0.188398, -0.103219, 0.019698, -0.026157, 0.123436, 0.082192, 0.036957, 0.005899, 0.015366, 0.065998, 0.014321, 0.017032, -0.073634, -0.050043, 0.084543, 0.069662, -0.012245, 0.012723, -0.006257, 0.090161, -0.125834, 0.062537, -0.071371, 0.008216, 0.019914, -0.050011, 0.094373, 0.009053, -0.093862, 0.047316, 0.025706, 0.051265, 0.117783, 0.061557, 0.078211, -0.177614, -0.020583, 0.091822, 0.000439, -0.007424, 0.033083, 0.051900, 0.123158, -0.132058, -0.064490, -0.042734, -0.041065, -0.000888, 0.116467, 0.018653, -0.102012, 0.068330, -0.118588, -0.074493, 0.003885, -0.034755, 0.017626, -0.237372, -0.154603, -0.044433, 0.124666, -0.123809, 0.013845, -0.110556, -0.031941, 0.192441, 0.016832, 0.183137, -0.138955, -0.060758, -0.020886, -0.016731, 0.052618, -0.089007, 0.072381, 0.012998, -0.023480, -0.056499, 0.036753, 0.097850, 0.046915, -0.098557, 0.113981, -0.022767, 0.052270, 0.078432, 0.047585, 0.132154, 0.003205, -0.126631, 0.196866, -0.136779, 0.114689, -0.019665, 0.004993, -0.099010, 0.060528, 0.115627, -0.036461, -0.049324, 0.135312, 0.077469, -0.071274, 0.038011, 0.030510, -0.037354, 0.060452, 0.047071, -0.017290, 0.084573, -0.080846, -0.019486, -0.009189, -0.077631, 0.048136, -0.141500, -0.064780, 0.104723, -0.064625, 0.009851, -0.024928, -0.078323, 0.078799, 0.019271, 0.136275, 0.077025, -0.106498, 0.035892, -0.053541, 0.095087, 0.041763, 0.150921, -0.004644, -0.010409, 0.005833, 0.069733, -0.010999, -0.120556, -0.138115, -0.017283, 0.075841, -0.075195, 0.023592, -0.051673, -0.063642, 0.064105, 0.006823, 0.059344, -0.035867, 0.056279, 0.121218, 0.016463, -0.028337, -0.009125, 0.033426, 0.037148, 0.125980, 0.093446, 0.060278, 0.009776, -0.001326, 0.006310, 0.072468, -0.022777, 0.101371, 0.051775, 0.121080, -0.043934, -0.029702, -0.198498, 0.183010, 0.003621, -0.274748, -0.196962, 0.197302, -0.019577, -0.019895, 0.077297, 0.093545, -0.100594, -0.107879, 0.082286, -0.122234, 0.060305, -0.013565, -0.013674, -0.033250, 0.180653, 0.019492, -0.031380, 0.066235, 0.277140, 0.321173, -0.126811, -0.028844, 0.051703, 0.036216, -0.074057, 0.031618, -0.071909, 0.183602, 0.144363, -0.047159, -0.026578, -0.031082, -0.039927, 0.277156, -0.096248, 0.068496, -0.088591, -0.019393, 0.037676, -0.097225, -0.044116, -0.211200, 0.056690, 0.098597, -0.075181, -0.048349, 0.110463, 0.078183, -0.027874, -0.023607, -0.119079, -0.064570, -0.103811, -0.113282, -0.086197, -0.329480, 0.169116, 0.093561, 0.048001, -0.265162, -0.061882, 0.132214, -0.103930, 0.131553, 0.073984, -0.105496, 0.054920, 0.024951, -0.036249, -0.064324, -0.000176, -0.006765, 0.013230, 0.087242, 0.018544, 0.009269, 0.081330, -0.082153, 0.055595, -0.021756, 0.095000, 0.001928, -0.053463, 0.015866, -0.111018, -0.018141, 0.072950, 0.071577, -0.069652, 0.108286, 0.007532, 0.064958, 0.007821, -0.002134, -0.069889, -0.010080, -0.021966, 0.017432, 0.049310, 0.091589, -0.047120, 0.099622, -0.078585, -0.089383, 0.024259, 0.103182, -0.072345, 0.078627, -0.084798, -0.047021, -0.061998, 0.050201, 0.103403, 0.035510, -0.024799, 0.094981, -0.021731, 0.102432, -0.016570, 0.024667, -0.117461, 0.042677, -0.119426, 0.028897, -0.083866, -0.034095, 0.071157, 0.156549, 0.097226, -0.106955, -0.086768, 0.019437, -0.000352, -0.024176, 0.018406, -0.143740, 0.017900, 0.047627, -0.086899, -0.124392, -0.141980, 0.101669, -0.001507, 0.141017, -0.013234, 0.040633, 0.142294, -0.082884, 0.157774, -0.091452, 0.135789, -0.015411, 0.027148, -0.032400, 0.020744, -0.086264, 0.047199, -0.160538, -0.020902, -0.035171, 0.058418, -0.092999, 0.132876, 0.099642, -0.032156, 0.171871, 0.007410, -0.048057, -0.053000, 0.123345, 0.094902, 0.024897, -0.156122, -0.001437, 0.001630, 0.026149, -0.031601, 0.099313, -0.092225, -0.004229, 0.111421, 0.097580, 0.076088, 0.107228, -0.039726, 0.018748, -0.110094, 0.042407, 0.100857, -0.068183, -0.207761, 0.039711, 0.034584, -0.132960, 0.114062, -0.081791, -0.344907, 0.062989, 0.015821, -0.029084, -0.052480, 0.013889, -0.087361, 0.028997, -0.057012, 0.097667, -0.117925, -0.149400, 0.186252, -0.142229, -0.232847, -0.150628, -0.055931, 0.077370, 0.169774, 0.092385, -0.016135, 0.019698, 0.052335, -0.359978, -0.158832, 0.018733, -0.111937, 0.021416, 0.154123, -0.050916, -0.019799, 0.084696, 0.028036, 0.054375, 0.241368, 0.021544, -0.053697, 0.225384, 0.109643, -0.081428, 0.319701, 0.049361, -0.289970, 0.008692, 0.207219, 0.111182, 0.033454, 0.245593, 0.120476, 0.154344, 0.054857, 0.205045, 0.101356, 0.082514, -0.043404, 0.045822, 0.036735, 0.117064, 0.036543, -0.102089, 0.112565, -0.024321, -0.118407, 0.079344, -0.059383, 0.046044, -0.018853, -0.180144, 0.083435, 0.081219, 0.087979, -0.040822, 0.052115, 0.036519, -0.024412, 0.011901, 0.065878, 0.064756, 0.168739, 0.004863, -0.061370, 0.019300, 0.042091, -0.104153, 0.032489, -0.101790, 0.011499, 0.110106, -0.047305, 0.059098, -0.069392, 0.015450, -0.129029, -0.064241, 0.084966, 0.087360, -0.001437, 0.015631, -0.121971, -0.052896, 0.184827, 0.023782, -0.068684, 0.045083, -0.109550, 0.101908, 0.109191, -0.019069, 0.077955, -0.004077, -0.068195, 0.103576, 0.028699, 0.093346, -0.118271, -0.039199, 0.078797, 0.109330, 0.070017, -0.047314, -0.072375, 0.082470, -0.073183, -0.017153, 0.088177, 0.106940, -0.220384, 0.090189, -0.194529, 0.069986, 0.045622, -0.137076, 0.046402, 0.047723, -0.073782, -0.121480, -0.178667, 0.014231, -0.094320, 0.051157, 0.067943, 0.114681, -0.050958, 0.139972, 0.058594, 0.106502, -0.084302, -0.007541, -0.140574, -0.000005, 0.059738, 0.045701, 0.063064, -0.087579, -0.110009, 0.050178, 0.049402, -0.060909, 0.063081, 0.117009, -0.183662, 0.264073, -0.099009, 0.066857, 0.065251, -0.043047, 0.104627, -0.014859, 0.031304, 0.069131, -0.042378, -0.014621, 0.096747, 0.141316, -0.071184, -0.033680, 0.016301, -0.088226, -0.146836, 0.021388, 0.022950, 0.025361, -0.145562, -0.040094, -0.092290, 0.104053, -0.072117, 0.099548, 0.162147, 0.057154, -0.138812, 0.005664, -0.037031, 0.086681, 0.017313, -0.027062, 0.016767, 0.074827, -0.096426, 0.090486, -0.119622, 0.052841, -0.110759, 0.039604, -0.085584, 0.027728, -0.061937, -0.023491, -0.013117, -0.005465, -0.044934, -0.052609, -0.076148, 0.041430, 0.076999, 0.059429, 0.035885, -0.051674, 0.030386, 0.005046, -0.086914, 0.120544, -0.059576, 0.007507, -0.103660, -0.029493, -0.045742, 0.078846, 0.161430, 0.032145, 0.059878, -0.071671, -0.158807, -0.055879, -0.005988, -0.072812, -0.100217, 0.101264, -0.025700, -0.098579, -0.040818, 0.010975, -0.109763, 0.021235, -0.051964, -0.008441, 0.005791, 0.134864, -0.228338, 0.174135, -0.023068, -0.048887, 0.131000, -0.017923, -0.053479, -0.136315, -0.189315, -0.048845, -0.051935, -0.217973, 0.106515, -0.139208, 0.070315, 0.013649, 0.103251, 0.091392, 0.062287, -0.051373, -0.093522, 0.128548, 0.027627, -0.044117, 0.045055, 0.104916, -0.042412, -0.043202, -0.095737, -0.033429, 0.008481, 0.015470, 0.105725, -0.053005, 0.000030, -0.117520, 0.092749, -0.056714, 0.113593, 0.031426, -0.088138, 0.102670, -0.043942, -0.127704, 0.087313, -0.026341, 0.016448, -0.067373, 0.061100, 0.016261, 0.092220, -0.093441, 0.023672, -0.089370, 0.011672, -0.044653, -0.057449, -0.076725, -0.053513, 0.050300, 0.033119, 0.027807, 0.005319, -0.071616, 0.123373, 0.036398, -0.131409, -0.017518, 0.129953, -0.097710, 0.339205, -0.074573, -0.175767, -0.122419, -0.052616, 0.047715, 0.132110, -0.103742, -0.054450, 0.029613, 0.342178, 0.259565, 0.081133, 0.059177, 0.052416, -0.013742, -0.217342, -0.030580, -0.173002, -0.061105, 0.228266, 0.142721, 0.236467, 0.294838, -0.002473, 0.071634, 0.058464, -0.051794, -0.034137, -0.095899, -0.152665, 0.172840, 0.063282, -0.003859, 0.250468, -0.116302, 0.282867, -0.071300, -0.192809, 0.217050, -0.363838, -0.028412, 0.104098, -0.098377, 0.011210, -0.144816, 0.097388, -0.190045, 0.080729, 0.086258, 0.135240, 0.124956, 0.099211, 0.103198, 0.085649, 0.044174, -0.018079, 0.153209, -0.019374, 0.159891, 0.098860, -0.161183, -0.061290, 0.125262, 0.076736, 0.091623, 0.097508, -0.024397, 0.023728, 0.269661, 0.017971, -0.003365, 0.003935, 0.015298, 0.207497, 0.179721, 0.365483, 0.092628, 0.037534, -0.055790, 0.087136, 0.159323, -0.065659, -0.129131, 0.093799, -0.019361, 0.183493, 0.000981, -0.016123, 0.209326, 0.123477, -0.060316, -0.063170, -0.000952, -0.259649, 0.221284, 0.077274, -0.153953, -0.012642, -0.239900, -0.045262, -0.102501, -0.023764, 0.112613, -0.291848, 0.087032, -0.005523, -0.096808, 0.161104, 0.190736, 0.030801, -0.094185, 0.053050, -0.068502, 0.008266, -0.019013, -0.011812, -0.124992, 0.030909, -0.239293, 0.060196, 0.000278, 0.002855, -0.090046, -0.002988, 0.141590, -0.023200, 0.052744, 0.026996, -0.163516, -0.216072, 0.208029, -0.109956, -0.207037, -0.127871, -0.062188, -0.043268, -0.114316, -0.054639, 0.029499, -0.250205, -0.153092, 0.112965, 0.265188, -0.078667, 0.040380, 0.068540, 0.046833, -0.248506, 0.178609, -0.156822, 0.062237, 0.089985, 0.047037, 0.110810, -0.100506, 0.062106, 0.030295, 0.088683, 0.104578, 0.084404, 0.147486, -0.025417, 0.039353, -0.029579, 0.015622, 0.019715, -0.090082, 0.047102, -0.127546, 0.154575, -0.111401, 0.152501, 0.011417, -0.220224, -0.131660, -0.094143, 0.028569, -0.047726, -0.138845, -0.027813, -0.036001, -0.038925, 0.219027, 0.072911, 0.071703, -0.085330, -0.050719, -0.041787, 0.111839, 0.100496, -0.021099, -0.062875, -0.063345, -0.100172, -0.104826, 0.060660, -0.128934, 0.149573, -0.098730, 0.105944, 0.013044, 0.005224, -0.014293, -0.071640, -0.031635, 0.107395, -0.179278, -0.013857, -0.077884, -0.047363, 0.098058, 0.092028, 0.090526, -0.137868, 0.091645, 0.031613, -0.205777, -0.041644, -0.003257, -0.107093, -0.128729, 0.066279, 0.054860, 0.211895, 0.005311, 0.062351, -0.004082, 0.104015, -0.136613, -0.058233, 0.035254, -0.097597, -0.008461, 0.045595, -0.088588, 0.103423, 0.084625, 0.006802, -0.040461, 0.073266, 0.109720, 0.061018, -0.047781, -0.062928, -0.078004, 0.116925, -0.006355, -0.152060, 0.074780, -0.096356, 0.005886, -0.137360, -0.292034, -0.024822, -0.106531, 0.323637, 0.000739, -0.348315, 0.000559, -0.012007, -0.036931, 0.030494, -0.050009, -0.082536, -0.034190, 0.215141, 0.115604, 0.058824, -0.195139, 0.051435, -0.021467, -0.122712, 0.024526, -0.387120, -0.187376, 0.164786, 0.075606, 0.217382, 0.012565, 0.037480, -0.221871, 0.073125, 0.101131, 0.058487, -0.002223, -0.017479, 0.168271, -0.035522, 0.074065, 0.128375, -0.182850, 0.218873, -0.097659, -0.059780, 0.113879, -0.146460, -0.089491, 0.126376, 0.020737, -0.170598, 0.022067, 0.244780, -0.214794, -0.086582, 0.007292, -0.001731, 0.053109, 0.013803, -0.104162, 0.375367, -0.049406, 0.070998, -0.015692, 0.072083, -0.048986, -0.032872, -0.135983, 0.126496, -0.164327, -0.087251, -0.083626, -0.192930, 0.058776, -0.005433, -0.195041, 0.007712, -0.004735, -0.003204, 0.009107, 0.020275, -0.031131, 0.068030, 0.071702, 0.047400, 0.009986, -0.091782, 0.197032, -0.102277, -0.073784, -0.062478, 0.123273, -0.101312, -0.032615, -0.062602, 0.064323, 0.101221, -0.041305, 0.011410, 0.080991, 0.072968, 0.086766, 0.112460, 0.146368, -0.055392, 0.036892, 0.105826, -0.069572, 0.066853, -0.018959, 0.056538, -0.083630, 0.144710, -0.008934, -0.001871, -0.040504, 0.022426, 0.000932, 0.088959, 0.064542, 0.066286, 0.046221, -0.106880, -0.013687, 0.079606, 0.031639, -0.017148, -0.112558, -0.098039, 0.119662, -0.058447, 0.057044, 0.192026, 0.063470, -0.038984, 0.001500, -0.073519, 0.091115, 0.066893, -0.073015, 0.048013, 0.126103, -0.069902, -0.078858, -0.165380, 0.001027, -0.086561, 0.137582, 0.086209, 0.100992, 0.068225, -0.041171, 0.074366, 0.096673, 0.097243, -0.000165, 0.083348, -0.113994, -0.106476, 0.078270, 0.097896, 0.014031, -0.124426, 0.064895, 0.056865, -0.025297, 0.040894, 0.069277, -0.091780, 0.125496, -0.111844, -0.098161, 0.188427, 0.071250, -0.036185, 0.034933, -0.175880, 0.037853, -0.064917, 0.107218, -0.065980, 0.020373, 0.033688, -0.050715, -0.009111, -0.007131, -0.088569, 0.057157, -0.052601, 0.009315, -0.029780, 0.117862, 0.030060, -0.059050, 0.017412, 0.027504, 0.028381, -0.042595, 0.008027, 0.005038, -0.238018, 0.012964, 0.012463, 0.045916, 0.104023, 0.032387, 0.078811, -0.069020, 0.050985, 0.087501, -0.069406, -0.007684, 0.086101, -0.214998, -0.010215, -0.159277, -0.063048, -0.027404, 0.099081, 0.079347, 0.017984, -0.142930, -0.096280, -0.175302, -0.146337, -0.054210, -0.089192, 0.062678, -0.014632, 0.030101, 0.082162, -0.047081, 0.084044, 0.117657, 0.081467, 0.065517, -0.142926, -0.015309, 0.034778, 0.062779, 0.093732, -0.032328, -0.153788, 0.116403, 0.009353, 0.081262, -0.125010, 0.007687, 0.140103, 0.144061, -0.011060, -0.009715, 0.034583, 0.108611, 0.031931, 0.054995, -0.119298, -0.129869, 0.075849, -0.145647, -0.024107, 0.023111, 0.065428, -0.092581, -0.147022, 0.038121, -0.104568, -0.148379, -0.012638, 0.008575, 0.046857, -0.106885, 0.110932, 0.044902, 0.022373, 0.042376, 0.117727, -0.031377, 0.068059, -0.019122, 0.026226, 0.046572, -0.036021, 0.156959, 0.064644, -0.123520, -0.090462, 0.057869, -0.101791, 0.066042, 0.003870, 0.023263, 0.005452, 0.044961, 0.031148, 0.004937, 0.068784, -0.058973, -0.017472, -0.005849, -0.127816, -0.031322, 0.030935, -0.114076, -0.027576, -0.101944, -0.183021, -0.054072, -0.008680, 0.046019, 0.021572, -0.067045, 0.024758, -0.019549, -0.001150, 0.014347, 0.051057, 0.056130, -0.105845, -0.024908, -0.202568, 0.058441, 0.040889, -0.034571, 0.152640, -0.039245, 0.070576, -0.118495, -0.167729, 0.012566, -0.061206, -0.102898, 0.057239, -0.089225, 0.010143, 0.096295, -0.073165, -0.011557, -0.014150, -0.072844, -0.015638, -0.052400, 0.089298, 0.105326, 0.015307, 0.113639, 0.080038, 0.077467, -0.068491, -0.054971, 0.001988, 0.070579, 0.075521, -0.057845, -0.106170, 0.063553, 0.055130, 0.117516, -0.025100, 0.084791, -0.063385, 0.072878, -0.049670, 0.065227, 0.106915, 0.049418, -0.022716, -0.087778, 0.062051, -0.066990, -0.048106, 0.051720, 0.084494, 0.083001, 0.072286, 0.055831, 0.135732, 0.022538, -0.016960, -0.128984, 0.038291, 0.160166, -0.049001, 0.009405, -0.052494, 0.065915, -0.023898, 0.000147, 0.081919, 0.006824, 0.054676, 0.011891, -0.140832, 0.081845, 0.043740, -0.199039, 0.065546, 0.070974, -0.006436, -0.038421, -0.047323, 0.110615, 0.038788, 0.094621, 0.022477, -0.210749, -0.134425, -0.135767, 0.059157, 0.005586, 0.048614, 0.098564, -0.025054, -0.004156, -0.069479, -0.125060, -0.065258, 0.035543, -0.050532, -0.014405, 0.072176, -0.171290, 0.164552, -0.060842, 0.130084, 0.009633, 0.178542, -0.036901, -0.158646, 0.071597, -0.014419, 0.034488, -0.017461, 0.158391, -0.156361, 0.052395, 0.091539, 0.040981, -0.021205, -0.002794, 0.137085, 0.134190, -0.078778, 0.151024, -0.098668, 0.022341, -0.077386, 0.021006, -0.009475, -0.035442, -0.066925, 0.006530, -0.140684, -0.006154, 0.357105, 0.063257, -0.117846, -0.000499, 0.013451, -0.072085, -0.016344, 0.118384, -0.078973, 0.021798, 0.172055, 0.254855, -0.106067, -0.211751, 0.192109, -0.200249, -0.267390, -0.248120, -0.159341, 0.073332, 0.006441, -0.018878, 0.240144, 0.008347, -0.114683, -0.371873, -0.265082, 0.088370, -0.077308, -0.116521, -0.010910, -0.129824, 0.026266, -0.144450, 0.182008, 0.036912, 0.346019, -0.146762, -0.300699, 0.030017, -0.050398, -0.051555, 0.376002, 0.234489, -0.302765, -0.275029, 0.369484, 0.207990, 0.038079, 0.155071, -0.096088, 0.024338, 0.063398, -0.110176, 0.092121, 0.263020, 0.039268, 0.153682, -0.117159, 0.044872, -0.053211, 0.045973, 0.047089, -0.108257, 0.065841, -0.011833, -0.134227, 0.071985, -0.072403, -0.220773, 0.071936, 0.038836, -0.120240, 0.026059, 0.104546, 0.103648, -0.068973, 0.040963, -0.077022, 0.042751, 0.030134, 0.011884, 0.005662, 0.024914, 0.049525, 0.125443, -0.051472, -0.133778, 0.053793, 0.173736, 0.050294, -0.128332, -0.101554, 0.004779, -0.118819, 0.118515, 0.131951, -0.058764, -0.050215, -0.059206, 0.060942, 0.060889, 0.068457, 0.068042, 0.029752, -0.096167, -0.041626, 0.004175, -0.041094, -0.056711, -0.059302, -0.039828, 0.082997, 0.068664, 0.111423, 0.029235, -0.048260, -0.035711, -0.031072, 0.025302, -0.089436, -0.067030, 0.117132, -0.003913, 0.015465, -0.005336, -0.078071, -0.001131, 0.027041, 0.050972, -0.150467, 0.005348, -0.045126, -0.274467, 0.061657, 0.054073, -0.084232, -0.036774, 0.103344, -0.092969, -0.037779, 0.025145, -0.059979, 0.051152, -0.017972, -0.023124, 0.021495, 0.188182, -0.033381, -0.003501, -0.023634, -0.122634, -0.012953, -0.036344, -0.150503, 0.073044, -0.058781, -0.124023, 0.141941, -0.024896, 0.067191, 0.065059, 0.085473, -0.093085, 0.125476, 0.034389, 0.009520, -0.012230, 0.164812, 0.003906, 0.018273, 0.131141, -0.055493, 0.045152, -0.038048, -0.051549, -0.049841, 0.055866, 0.035292, -0.013008, 0.062967, -0.023715, 0.074364, 0.100084, -0.001927, -0.000548, -0.101544, -0.011232, 0.117021, -0.121663, 0.038505, 0.015632, -0.013419, -0.119441, -0.066990, 0.128438, 0.064223, -0.243919, 0.050422, 0.092450, -0.076576, -0.048098, 0.089485, -0.104257, -0.062535, 0.127206, -0.022283, 0.061421, -0.076034, -0.009319, -0.042038, 0.066826, 0.055324, 0.129446, 0.008817, -0.034862, 0.004133, 0.048867, 0.119313, -0.024326, 0.054382, 0.085583, -0.006627, -0.071607, 0.169700, -0.084666, -0.073623, 0.081915, 0.038266, -0.145282, -0.068906, 0.027980, -0.060919, 0.073121, 0.062586, -0.044765, 0.027143, -0.122328, 0.105865, -0.024740, 0.054565, -0.028345, 0.062869, 0.004592, -0.073297, -0.037085, -0.038815, 0.059129, -0.061944, 0.091492, -0.054202, 0.042824, 0.033980, -0.010124, 0.030178, -0.116329, 0.147639, -0.040173, -0.225303, 0.036637, -0.065440, -0.221054, -0.109839, -0.021980, -0.097464, -0.006307, -0.022814, -0.060125, -0.015294, -0.122639, 0.015016, -0.017440, 0.016370, 0.049230, -0.133181, 0.089699, 0.006231, 0.138928, 0.105589, 0.017593, 0.088703, 0.010594, -0.076082, 0.019319, -0.000898, -0.078905, -0.083954, 0.109226, 0.052711, -0.050106, 0.093598, -0.102079, 0.199611, -0.153008, -0.099968, -0.106083, 0.015459, -0.088525, 0.049584, -0.102681, -0.056377, -0.044975, 0.116945, -0.119486, 0.064152, 0.100188, -0.024165, -0.047630, -0.080754, -0.051773, 0.084468, 0.004978, 0.015678, -0.001264, 0.120866, 0.134709, 0.117028, -0.127584, -0.113938, 0.065081, 0.305626, 0.257671, -0.072029, -0.282096, 0.020039, 0.101551, -0.168020, 0.058763, -0.058759, -0.002777, 0.345719, 0.321084, 0.085363, -0.006282, -0.006867, -0.230340, -0.094395, -0.126031, -0.216309, 0.173700, 0.002121, 0.081467, 0.220882, -0.024138, 0.021416, -0.132852, 0.048262, -0.076110, -0.040014, -0.030653, -0.021437, 0.033273, 0.097157, -0.207535, 0.144759, -0.419082, 0.168691, -0.094270, -0.305562, 0.089547, -0.196757, 0.020145, 0.139196, 0.142513, -0.182849, -0.193260, 0.235008, -0.047585, -0.052102, 0.118278, -0.038264, 0.244461, -0.010528, -0.090013, 0.179641, 0.040482, -0.085785, 0.014787, -0.064228, 0.219282, -0.028117, 0.013761, 0.012607, -0.183155, -0.011495, 0.229547, 0.154812, -0.017358, 0.044366, 0.035886, 0.054885, 0.093761, -0.135075, -0.081313, 0.051319, -0.014649, 0.018164, 0.268396, 0.049372, 0.022547, 0.107998, 0.007695, 0.112800, -0.078419, 0.084677, -0.051995, 0.075842, 0.024675, 0.092439, 0.100458, 0.031167, 0.016183, 0.084457, -0.075283, -0.129437, 0.041329, -0.015298, -0.074166, 0.028371, -0.119834, -0.074336, 0.082363, 0.191036, -0.006442, -0.071425, -0.045667, -0.206930, -0.055124, 0.060189, 0.061181, 0.090442, 0.007074, -0.103855, -0.084768, 0.093463, 0.118701, -0.130532, 0.052139, -0.027190, -0.052249, 0.039957, 0.064602, 0.072943, 0.045262, -0.182204, 0.107556, -0.012894, -0.075813, 0.234433, 0.026570, -0.194350, 0.125050, -0.077257, -0.238344, -0.071791, 0.133432, -0.090777, -0.094789, -0.056531, 0.067456, -0.188258, -0.048589, 0.191284, -0.048771, -0.185964, -0.039922, -0.019473, 0.050283, 0.014310, -0.063805, 0.153469, 0.030544, 0.056212, -0.147139, -0.076054, -0.051285, -0.018529, -0.110928, 0.079685, -0.024204, -0.053957, 0.067405, 0.159694, 0.169066, 0.201383, -0.089619, -0.048090, -0.015313, 0.134020, -0.035456, 0.225232, 0.028385, -0.047419, -0.063009, 0.180579, -0.022743, 0.069715, 0.124637, 0.129946, -0.056467, 0.015409, -0.026255, 0.185440, 0.133965, -0.031863, 0.055139, -0.122759, 0.057698, -0.153327, -0.088810, -0.068810, -0.156101, 0.006077, 0.147628, -0.175643, -0.049780, -0.024399, -0.153487, -0.057847, 0.037008, 0.089717, -0.002723, -0.010156, -0.078346, 0.052592, 0.088386, -0.022271, -0.139380, -0.086798, 0.010745, -0.118732, 0.029753, 0.071371, -0.075243, 0.058665, -0.071575, -0.084108, -0.114032, -0.037823, 0.011268, 0.085386, 0.009505, -0.064782, -0.004779, -0.051210, 0.061487, -0.004077, 0.003284, 0.108469, -0.128760, -0.131467, 0.111885, 0.110144, 0.025044, 0.016504, 0.198853, -0.118717, 0.073215, 0.210430, 0.040877, -0.003068, 0.020360, 0.157412, -0.034650, -0.084886, 0.019547, 0.231157, 0.172062, -0.152737, 0.038726, 0.044351, 0.023323, -0.009659, -0.021439, -0.140735, 0.006881, 0.081643, 0.005054, 0.125451, -0.124339, 0.104062, 0.148253, -0.174654, 0.011312, 0.015785, 0.067277, 0.012307, -0.021101, -0.120942, -0.035331, -0.126618, -0.041216, -0.156095, -0.000480, -0.014133, 0.134178, -0.136027, -0.133630, -0.025210, 0.127854, 0.050125, -0.058605, 0.006349, -0.084152, -0.104694, -0.116504, -0.020712, -0.110295, -0.071870, -0.064613, 0.161642, -0.082912, -0.005728, 0.009632, 0.017611, -0.098591, 0.097152, -0.102431, 0.051092, 0.155032, 0.054412, -0.083819, 0.092706, 0.026329, -0.061446, 0.059229, -0.096021, -0.064381, 0.044490, 0.190542, -0.038909, -0.149636, -0.033426, 0.129913, -0.141941, 0.089835, 0.003533, -0.085529, -0.099944, -0.018586, -0.035782, -0.002752, 0.139777, 0.017912, -0.051355, 0.162694, -0.060598, -0.168039, -0.035652, 0.079777, 0.031674, 0.047704, 0.096535, -0.118208, 0.178161, -0.006757, -0.155641, -0.048815, -0.026043, -0.039502, -0.027609, -0.100041, 0.084370, 0.203403, -0.063545, -0.006395, -0.016067, -0.060017, -0.034608, 0.033260, -0.049274, 0.125953, 0.189261, 0.057574, 0.037264, 0.099117, 0.054188, -0.068404, 0.089530, 0.082509, 0.115542, 0.107563, 0.061807, 0.066961, -0.059327, 0.030611, 0.011750, -0.091048, -0.025180, -0.018295, 0.051669, -0.084213, 0.029482, 0.028673, 0.002263, -0.049227, 0.031428, 0.125519, -0.136366, 0.021233, 0.191883, 0.002852, -0.113965, -0.109922, -0.068731, 0.184996, 0.129981, 0.049365, -0.143103, -0.024186, 0.111882, -0.078905, 0.027400, 0.045144, -0.039883, 0.155410, 0.144891, 0.121022, 0.026296, 0.080352, 0.337667, 0.096275, 0.063267, -0.113771, -0.161837, 0.010430, 0.201976, 0.154892, -0.006576, 0.102337, 0.045604, -0.112481, -0.075313, -0.077209, -0.195520, 0.194628, -0.152048, -0.134581, 0.019576, -0.095065, -0.069751, 0.008759, -0.062576, 0.099558, -0.134521, -0.015054, -0.158787, -0.092471, 0.165596, 0.288777, -0.095663, -0.042393, -0.022280, -0.054257, -0.173408, -0.164992, -0.090171, -0.032289, 0.009460, -0.045239, -0.027251, -0.135119, -0.083861, -0.148851, -0.082903, 0.110544, 0.073303, -0.098155, 0.135753, 0.024888, 0.111065, -0.046641, 0.080258, -0.014523, -0.040612, 0.004506, 0.078667, 0.079059, -0.096045, -0.011409, -0.108199, 0.093648, 0.006440, -0.000017, -0.140646, -0.029013, 0.086291, 0.009967, 0.005927, 0.066391, 0.094388, 0.030490, 0.067774, 0.006599, -0.033095, -0.050751, -0.037283, -0.068091, 0.074822, -0.133358, 0.029021, -0.039718, -0.046267, 0.023429, -0.151137, -0.058882, 0.047543, 0.077083, -0.073730, 0.020314, -0.009522, 0.031844, -0.073131, 0.007240, -0.010028, -0.066344, 0.014484, 0.006121, 0.008628, -0.019893, 0.067187, 0.047028, -0.098147, -0.006933, 0.008937, 0.034025, 0.007603, -0.151787, 0.018608, -0.021191, -0.110761, -0.101248, 0.102699, -0.121181, 0.081858, 0.072033, -0.129031, 0.155116, 0.020645, 0.027217, -0.119852, -0.090258, -0.084887, -0.036929, 0.127642, -0.030461, 0.004154, -0.017804, -0.052706, -0.022223, -0.067385, -0.055962, -0.091212, -0.008422, 0.080485, 0.073670, -0.077600, 0.068674, 0.009355, 0.038786, 0.027185, 0.058151, -0.062706, 0.083486, -0.059033, -0.112175, 0.089861, 0.104682, 0.045599, 0.122228, 0.052766, 0.085537, -0.029457, 0.089848, 0.005955, 0.030297, -0.055061, -0.019514, 0.100774, 0.026115, 0.020744, -0.047626, 0.033282, 0.016166, 0.040718, -0.088304, 0.068433, -0.150696, -0.104977, -0.110264, -0.091813, -0.165674, 0.174399, -0.069139, -0.146480, -0.070339, -0.018443, 0.117495, 0.139886, -0.192546, -0.009076, -0.046040, 0.157503, 0.049351, -0.003142, 0.030300, -0.127083, 0.180974, 0.133058, -0.036598, 0.018815, 0.012230, 0.251013, 0.179237, 0.073512, -0.078330, -0.004153, -0.151051, 0.245911, 0.168428, -0.039047, 0.096780, 0.159261, 0.004070, 0.049695, 0.000148, -0.127415, 0.094094, -0.140902, -0.151162, 0.298928, -0.199466, -0.157820, -0.121415, -0.187323, -0.078194, 0.086561, 0.034793, -0.185007, 0.094301, -0.010675, 0.273585, -0.045538, 0.061377, 0.014671, -0.033878, -0.250017, -0.094866, 0.079680, -0.057891, 0.105973, 0.045382, 0.058757, -0.164275, -0.044545, -0.004564, -0.011801, -0.082610, -0.032679, -0.042982, -0.068124, -0.035852, 0.125137, -0.091290, -0.050316, -0.024174, -0.007846, -0.152976, 0.027652, 0.052027, -0.116317, 0.037727, -0.018475, 0.170679, 0.013711, -0.054741, -0.027108, 0.089946, -0.028971, -0.049717, 0.005520, -0.035123, 0.015305, 0.104063, -0.042529, 0.187163, 0.043050, -0.067391, 0.043278, -0.076869, -0.080021, 0.098177, 0.092332, -0.094179, 0.095594, 0.017205, -0.158361, 0.032264, -0.003729, 0.049169, -0.097147, 0.026323, -0.150020, -0.040215, 0.209447, 0.040706, 0.004827, -0.033065, 0.001078, 0.076300, 0.099406, 0.050865, -0.103885, 0.135762, -0.028674, 0.045879, -0.087469, 0.018515, -0.081297, 0.036748, 0.120593, -0.059103, 0.192073, -0.054521, -0.089250, -0.091557, 0.147097, -0.028870, 0.015968, -0.126023, -0.022856, -0.057475, -0.093645, -0.072986, 0.123497, -0.109347, -0.125594, 0.206501, 0.080410, -0.056123, -0.022285, -0.128523, -0.037903, 0.051277, -0.064156, -0.092397, -0.106023, 0.136954, 0.078669, 0.052493, -0.019648, -0.106651, -0.103713, -0.109878, -0.031192, 0.014824, 0.022579, -0.044603, 0.017799, -0.123753, -0.164340, -0.098949, 0.062361, 0.084924, -0.102261, 0.033174, -0.138106, -0.028372, -0.035420, 0.071531, 0.088440, -0.194726, -0.076770, 0.022511, 0.171278, 0.082621, -0.016101, -0.044695, -0.018781, -0.098688, 0.044253, 0.079711, 0.016338, -0.136361, -0.056001, 0.119351, -0.152440, -0.021943, 0.118927, 0.210532, -0.021768, -0.117372, -0.036245, 0.083801, -0.049287, 0.071895, -0.036250, -0.033425, -0.136684, 0.088675, 0.095841, -0.087440, -0.066190, -0.080206, -0.058921, -0.072835, 0.074681, 0.002429, -0.047109, -0.021017, 0.101070, 0.100463, 0.098114, -0.067266, 0.011041, 0.006570, -0.109835, 0.038837, -0.091202, 0.056595, -0.083392, -0.167406, 0.162704, 0.000553, -0.096605, -0.142005, -0.200010, -0.086165, 0.064883, 0.044443, 0.049649, 0.122765, -0.062179, 0.011492, 0.071582, 0.210339, -0.010145, 0.007412, -0.046301, 0.007065, -0.070406, 0.102672, 0.047984, -0.114243, 0.074017, 0.046597, -0.084916, 0.018149, 0.058433, -0.005942, 0.018893, 0.036574, -0.121893, -0.068049, 0.181088, -0.007216, -0.008435, -0.055173, 0.117828, -0.179645, -0.111772, 0.095388, 0.016512, -0.058367, 0.019835, 0.066885, 0.041706, 0.048751, 0.056498, 0.069748, 0.012763, 0.020684, -0.094374, -0.179369, -0.057504, -0.058696, -0.005721, 0.168925, -0.039346, -0.074233, 0.071245, -0.073555, -0.074428, 0.190147, -0.024515, 0.020621, -0.071641, 0.097470, -0.196561, -0.058963, 0.126270, -0.088367, 0.011951, 0.007434, -0.064931, -0.012098, 0.280346, -0.029837, 0.005539, 0.102410, -0.048433, 0.030791, -0.007126, -0.108380, 0.045648, 0.104484, 0.094656, 0.018447, 0.033458, -0.040218, 0.003033, -0.174061, 0.138035, -0.104932, 0.057814, -0.049029, -0.004350, 0.118568, -0.063786, 0.014067, 0.089430, 0.113647, 0.164423, -0.026363, -0.092063, 0.039964, 0.066921, 0.084146, 0.147831, 0.081235, 0.055800, -0.080638, 0.137748, -0.025665, 0.048491, 0.113405, -0.169059, -0.055537, 0.089807, -0.017373, 0.077824, 0.109005, 0.071967, 0.040678, -0.075202, -0.129279, 0.100083, 0.004804, -0.011291, -0.165243, 0.130942, -0.049259, -0.085175, 0.022597, -0.102541, -0.056153, 0.047284, 0.034954, -0.122206, 0.077438, 0.015152, 0.064103, -0.027841, 0.170215, -0.045351, 0.001072, -0.083306, -0.046642, 0.061118, 0.053463, 0.141261, 0.033398, -0.032262, 0.024491, -0.108893, -0.018130, -0.000499, -0.018384, -0.005653, 0.040527, -0.022884, 0.085643, 0.105703, -0.022372, 0.044893, 0.055894, -0.000247, -0.096930, 0.027000, -0.112580, -0.113569, -0.123261, -0.013754, -0.028760, 0.009056, -0.077144, 0.025048, -0.063640, 0.079233, 0.078801, 0.036400, 0.027707, -0.020359, 0.055059, -0.093841, 0.087927, -0.041521, 0.007799, 0.009304, 0.056096, 0.093794, 0.041539, -0.131931, -0.066537, -0.016867, 0.095765, -0.001848, 0.003328, -0.023855, 0.134247, 0.105033, 0.021325, -0.010242, 0.111962, -0.020085, -0.055975, -0.096783, -0.015985, 0.051021, -0.086395, -0.050863, 0.105012, -0.107533, 0.029375, 0.090010, -0.127873, 0.014772, 0.015974, -0.095908, 0.027314, 0.059536, 0.014193, -0.058023, 0.018098, 0.097201, -0.024685, 0.085119, -0.122829, -0.107410, -0.009732, 0.031861, -0.082622, -0.107948, -0.045320, 0.029780, -0.115422, -0.053738, -0.028909, -0.020275, -0.042651, -0.030528, -0.018573, -0.037241, -0.036494, -0.016648, 0.042709, -0.093896, -0.057270, 0.060234, 0.006960, 0.078901, -0.039621, 0.035170, 0.062187, -0.030088, 0.088664, 0.063571, 0.057716, -0.079376, 0.052929, -0.146975, 0.097317, 0.041595, 0.082162, -0.104536, 0.013301, -0.018646, 0.016288, 0.013443, 0.038213, -0.062054, -0.013615, 0.051786, 0.059891, -0.022579, 0.035716, -0.045439, 0.089451, 0.001836, -0.116567, 0.055915, 0.091524, 0.043198, -0.069677, 0.028186, -0.059133, -0.096405, 0.029018, 0.117903, 0.066220, -0.051386, -0.105753, -0.063610, -0.035229, -0.033185, -0.045390, 0.040366, -0.087256, 0.029877, 0.150972, 0.071794, -0.118800, -0.021189, -0.099645, 0.112108, -0.033535, 0.117217, 0.071400, -0.029501, 0.080041, 0.059993, 0.073668, 0.012099, 0.043876, -0.052192, -0.036176, -0.000309, 0.075266, 0.015750, 0.027422, -0.043609, -0.032001, 0.039207, -0.065365, 0.038745, -0.034884, -0.104165, 0.065925, 0.068437, 0.059916, 0.089575, 0.006498, 0.102837, -0.086916, 0.008466, 0.064229, -0.038403, -0.059373, -0.168652, 0.029788, -0.006456, 0.019178, 0.082214, -0.010174, 0.019889, -0.209048, -0.003196, 0.076650, 0.071410, 0.025422, 0.010897, -0.100376, -0.105630, 0.089764, 0.169237, -0.017498, -0.098301, 0.020152, 0.205009, 0.052266, -0.061872, -0.097363, 0.037210, 0.076002, 0.110094, -0.068367, -0.028532, -0.090823, 0.093538, 0.101504, -0.099344, 0.027305, -0.219846, -0.164959, 0.125700, 0.032930, 0.022516, 0.040104, 0.036487, -0.025419, -0.111891, 0.075364, -0.040675, 0.066936, -0.059144, -0.096734, -0.019475, -0.105989, 0.031636, 0.067178, -0.031872, 0.072716, -0.052653, -0.088492, -0.046819, 0.163020, 0.077813, -0.030631, 0.028945, 0.112399, -0.056884, 0.062719, -0.277008, -0.109112, 0.054044, -0.093715, 0.166829, 0.073321, -0.001461, -0.244313, -0.106188, -0.186947, -0.146347, 0.064113, 0.064189, -0.126607, 0.003556, 0.062426, 0.229502, -0.054184, 0.065104, 0.034350, -0.012968, 0.006891, 0.026600, 0.008755, -0.042793, -0.173017, 0.024216, 0.162470, 0.047349, 0.083379, 0.028767, -0.134952, 0.079770, 0.000431, 0.034811, -0.148535, 0.086045, -0.044023, 0.111551, 0.041681, -0.091269, 0.087540, -0.115779, -0.060244, 0.002832, 0.000560, -0.054107, -0.148979, 0.056641, 0.026582, -0.189162, -0.035871, 0.102963, 0.040858, -0.040872, -0.049272, -0.013173, 0.081509, 0.204973, 0.016763, -0.028988, -0.015969, 0.071682, 0.100872, 0.129673, 0.049990, -0.010921, 0.057144, 0.001924, -0.149229, -0.020348, 0.106208, 0.204038, 0.015958, 0.038822, -0.018796, -0.082634, 0.028770, -0.028287, 0.108465, 0.103786, 0.008754, -0.051903, 0.116993, 0.023008, 0.092470, -0.040678, 0.052500, 0.168761, 0.008153, 0.069017, -0.134152, 0.073777, -0.070271, -0.043730, 0.013574, 0.007358, -0.035419, -0.001954, 0.041226, -0.051927, 0.063468, -0.017028, -0.091908, -0.102871, -0.103157, 0.079581, 0.057175, -0.031369, -0.059419, 0.082757, -0.070907, 0.158305, 0.033195, 0.130113, -0.098284, -0.244008, -0.002055, -0.026789, -0.078527, -0.014367, 0.010680, -0.127726, 0.008349, -0.014347, -0.066214, 0.060224, -0.078621, -0.132391, 0.034814, -0.051860, 0.108753, 0.011336, -0.006529, -0.092810, 0.130510, 0.122904, -0.051254, -0.062693, 0.135026, -0.026110, -0.168157, -0.045151, 0.080073, 0.124256, -0.107131, -0.092043, 0.131717, -0.120064, 0.095556, 0.052503, -0.017213, -0.027450, 0.037995, -0.109942, 0.012174, -0.020707, 0.056722, -0.110118, -0.115980, 0.004078, -0.026604, -0.201076, -0.064506, 0.203909, 0.083009, 0.077190, 0.046783, -0.052320, 0.042627, 0.014661, -0.110774, -0.008736, -0.136116, -0.161605, 0.048377, 0.247083, 0.015275, -0.115428, 0.088650, -0.108690, 0.187171, -0.027953, -0.084501, 0.105375, -0.031056, -0.007248, 0.066909, 0.040439, 0.044200, 0.042928, -0.006624, 0.083715, 0.128446, -0.041877, 0.003944, 0.035952, -0.213438, -0.112704, 0.097352, 0.051961, -0.097392, 0.401323, 0.204770, -0.376079, -0.009522, -0.007032, 0.155216, -0.059512, -0.150536, 0.075031, -0.095773, 0.069785, -0.029949, -0.025488, 0.015424, -0.073539, 0.091830, 0.277103, 0.103354, -0.075933, 0.000713, 0.318950, 0.282074, 0.034388, -0.152142, -0.058344, 0.123890, 0.221394, 0.021685, 0.041205, 0.191754, 0.122342, -0.029975, -0.113367, 0.039040, -0.141758, 0.090914, -0.126064, -0.123839, 0.202862, -0.249092, -0.130421, -0.033805, -0.129408, -0.152099, 0.078513, -0.080628, -0.127844, -0.014739, -0.036064, 0.325325, -0.132719, 0.055009, -0.101479, -0.126621, -0.332214, -0.168614, -0.042298, -0.076428, -0.200802, 0.265882, -0.067109, -0.295277, 0.092844, 0.040159, 0.017571, -0.009950, 0.099972, 0.027573, -0.097355, 0.143245, 0.058469, -0.021745, -0.087530, -0.121380, -0.123272, 0.030109, 0.079916, 0.055309, 0.008804, 0.081381, -0.014812, 0.097181, -0.052317, -0.164393, -0.155879, -0.078639, -0.058532, -0.076577, 0.071081, 0.045280, -0.086273, 0.121752, 0.024433, -0.119739, 0.030999, -0.121616, -0.113793, -0.033084, -0.080960, -0.005533, 0.030545, 0.141472, 0.151756, -0.062943, 0.077603, -0.069789, -0.069734, -0.049467, 0.003013, 0.027592, 0.003458, -0.070280, 0.037607, -0.048138, -0.115101, -0.088800, 0.055964, -0.043065, 0.166466, 0.126937, 0.056701, 0.058971, 0.095177, 0.071314, -0.105922, 0.165195, -0.032981, -0.008114, 0.169504, 0.053812, -0.235393, 0.165507, -0.019320, 0.043715, 0.101901, -0.064062, 0.056611, -0.030813, 0.047686, -0.009938, -0.004610, 0.038070, -0.030788, -0.055578, 0.193072, -0.017790, 0.017696, -0.081893, 0.165693, 0.179185, -0.118041, -0.048191, -0.126276, 0.056194, 0.025861, 0.067507, 0.061953, 0.103120, 0.036212, -0.015172, 0.057141, 0.029021, -0.040968, 0.112380, 0.012235, -0.024974, 0.011361, -0.110232, 0.054181, 0.064082, -0.135566, -0.086216, -0.119156, 0.093419, -0.029845, 0.045197, -0.070871, -0.099540, -0.015103, 0.117092, -0.119900, 0.082020, -0.150284, -0.039099, 0.012889, -0.072761, -0.008539, -0.029298, -0.041868, -0.132536, -0.003178, -0.153912, 0.019782, 0.201888, -0.137170, 0.029778, 0.158874, 0.125046, -0.015239, 0.013557, 0.003306, -0.130256, -0.026221, 0.122581, -0.015382, -0.096696, -0.012384, 0.271258, -0.010559, 0.002694, -0.055705, -0.035983, 0.130733, -0.039243, 0.073787, -0.105735, -0.073915, 0.067291, 0.088038, -0.025748, -0.019512, -0.146849, -0.078291, -0.056072, -0.010182, -0.018305, -0.055109, -0.045621, 0.003672, -0.158030, 0.248422, -0.085090, -0.125949, -0.061814, -0.176533, -0.120714, -0.009428, 0.055411, -0.027867, -0.012730, -0.096707, 0.122813, -0.073303, 0.017759, -0.008639, -0.083308, -0.240728, -0.166285, 0.100079, 0.090466, -0.059588, 0.060695, -0.096255, -0.021223, 0.034299, 0.020151, -0.074565, 0.016058, 0.015796, -0.089481, 0.097923, -0.010686, -0.106501, -0.033414, -0.048527, -0.025379, 0.155155, -0.093495, 0.056601, -0.081397, -0.079033, -0.083734, 0.073206, 0.103343, 0.012981, -0.089378, 0.092221, 0.051244, -0.095181, -0.166668, -0.020454, -0.018443, 0.116948, -0.042818, -0.083218, 0.114843, 0.080115, -0.018433, -0.040546, -0.028021, -0.066464, 0.085240, -0.040738, -0.120496, -0.137432, 0.131710, -0.050041, 0.060990, 0.232669, 0.082695, 0.063261, -0.111838, -0.100417, -0.054076, 0.131539, 0.083459, 0.032585, 0.014768, -0.115063, 0.083148, 0.001310, -0.025248, -0.010369, 0.079672, -0.035518, 0.087682, -0.149612, -0.161018, 0.127888, 0.051901, -0.043072, -0.205322, 0.144289, 0.063434, -0.073378, -0.063060, 0.177397, 0.116035, 0.039968, 0.084572, -0.204294, -0.098828, -0.112236, 0.008153, -0.111194, -0.215290, 0.048944, 0.041434, -0.190952, 0.133325, -0.057662, -0.016008, 0.090399, -0.166364, 0.231959, 0.191743, -0.023531, 0.115519, -0.047134, 0.129496, -0.067926, 0.068977, 0.030290, -0.032754, -0.214319, 0.135405, 0.029697, 0.228442, -0.017679, 0.015484, 0.041406, 0.063968, 0.153200, -0.126632, -0.091417, 0.033272, 0.007716, -0.148025, 0.151271, 0.140507, -0.087671, -0.244759, 0.001091, -0.025964, 0.077752, 0.044667, -0.132040, 0.064579, 0.012936, 0.129147, -0.015523, -0.073587, 0.042981, -0.031966, 0.063558, -0.053467, 0.038127, 0.075109, 0.086454, 0.108620, 0.053671, -0.064298, 0.028942, -0.076537, -0.023114, 0.178422, -0.076791, -0.085857, 0.039135, -0.014612, 0.082715, 0.074237, -0.029615, -0.128026, -0.090821, -0.209816, -0.014830, 0.051242, 0.007960, 0.042501, 0.094277, -0.027252, -0.029232, -0.137768, -0.005450, -0.082653, -0.071151, -0.126104, -0.041823, 0.063154, -0.069435, -0.034321, 0.168171, -0.012279, -0.092461, -0.068703, -0.072840, 0.016351, 0.068920, 0.022638, 0.078104, 0.123788, -0.023458, 0.070589, -0.102829, 0.131580, -0.042948, 0.015133, -0.087161, 0.033171, 0.060232, 0.019968, -0.047448, -0.023278, -0.128298, 0.045613, 0.026325, 0.029902, -0.023944, -0.030130, 0.029076, -0.041879, 0.081051, -0.012054, -0.124151, -0.060452, -0.021510, 0.058574, 0.039867, -0.148991, 0.075451, 0.030919, -0.146111, -0.134423, 0.159217, 0.101591, 0.002686, -0.035832, 0.102328, 0.129918, 0.042233, -0.053683, -0.060387, -0.080292, 0.072764, -0.072970, 0.082303, -0.005690, 0.159545, -0.132894, -0.082278, -0.072791, -0.089873, 0.231619, -0.045289, -0.040276, -0.030735, 0.151767, -0.202885, -0.109001, 0.153115, -0.058660, -0.100553, -0.062266, -0.214456, 0.068142, 0.163400, -0.029911, -0.073842, 0.023297, -0.011962, 0.035889, 0.157624, 0.045745, -0.021542, 0.083910, -0.076128, 0.100534, -0.040900, -0.088588, -0.022197, -0.001267, -0.057211, 0.089951, -0.057881, -0.143398, 0.171650, 0.066460, -0.018412, -0.071099, -0.121240, -0.093074, 0.061939, 0.153456, -0.122173, 0.025803, 0.020819, 0.124571, -0.056968, 0.028228, -0.032631, -0.110961, 0.113350, -0.118670, 0.013190, 0.118952, 0.003013, -0.024280, -0.025812, -0.070174, 0.015714, -0.095906, -0.128232, -0.086219, -0.087443, -0.073487, -0.034227, 0.032643, -0.071288, 0.024795, 0.086948, -0.092462, 0.088367, 0.041144, -0.068101, 0.023806, -0.077907, -0.011574, 0.085249, 0.058708, -0.152662, 0.076893, -0.085365, 0.088169, -0.010835, 0.035860, -0.119364, -0.060103, 0.033721, 0.065739, 0.076121, 0.004272, 0.087832, 0.135235, -0.030264, -0.006841, 0.045070, -0.064027, 0.003227, 0.065054, 0.022164, 0.052418, -0.080648, -0.002701, -0.048436, -0.067648, -0.102266, -0.060975, -0.072185, -0.075581, -0.111882, 0.112984, -0.007328, 0.159483, 0.080463, -0.093071, 0.005895, -0.143033, -0.027858, 0.042740, 0.078104, -0.077718, -0.053014, 0.031053, -0.072121, 0.008931, 0.002721, -0.109115, -0.045842, -0.043373, 0.016112, 0.038164, -0.074357, -0.009812, -0.072220, 0.024211, -0.136082, 0.067327, -0.109405, -0.028699, -0.025326, 0.022486, 0.072904, 0.075405, -0.074096, -0.016635, 0.039189, 0.136345, 0.099870, -0.104186, -0.062289, 0.050210, -0.033974, 0.110934, 0.090166, -0.127529, -0.127368, 0.058375, 0.083673, 0.093518, -0.051564, -0.002578, -0.005290, -0.055060, -0.053239, -0.027096, 0.002534, 0.038126, 0.014287, -0.046698, -0.153328, -0.131959, -0.084168, 0.075396, -0.018449, -0.015592, 0.139491, 0.115825, -0.242063, 0.167279, 0.151447, 0.040581, 0.027512, -0.001686, 0.096975, 0.104835, -0.083240, 0.076678, -0.020151, 0.097242, -0.104428, -0.132524, -0.099530, 0.096412, -0.154729, 0.099364, -0.106507, 0.022860, 0.111864, -0.034798, 0.003909, -0.120446, -0.098377, 0.016094, 0.063381, 0.064802, 0.086636, 0.042176, 0.018656, -0.074782, -0.027695, -0.022259, 0.107244, -0.039654, 0.033935, 0.034200, -0.147419, 0.101348, 0.126072, -0.008387, -0.082903, -0.080770, 0.072492, 0.069066, 0.189882, -0.044553, -0.116354, 0.096753, -0.071286, -0.041147, -0.063447, -0.045656, 0.044562, 0.158930, 0.071882, 0.064364, 0.000530, -0.065023, 0.086863, 0.088707, 0.108794, 0.109423, 0.091142, -0.103977, 0.089784, 0.039503, 0.072286, 0.064095, 0.102212, -0.016546, 0.116651, -0.015538, 0.087969, 0.000605, 0.019890, 0.067520, -0.031160, -0.092932, -0.117158, 0.011876, -0.112249, -0.031914, 0.073376, -0.110896, 0.010177, 0.036680, -0.136496, -0.029597, -0.032769, -0.076516, -0.177394, 0.056940, -0.132245, 0.064288, 0.011516, 0.155801, -0.085380, -0.020905, -0.324564, 0.050285, -0.138010, -0.186776, 0.001820, -0.008912, -0.126795, 0.009964, -0.051063, -0.023113, -0.096066, -0.024844, 0.082933, -0.068353, -0.148475, -0.139674, 0.120586, 0.044730, 0.030244, 0.139549, 0.024532, 0.097862, -0.133928, 0.027622, 0.086171, 0.086009, -0.020599, 0.047378, -0.044179, -0.056424, 0.028379, 0.019273, -0.067069, -0.020406, 0.047085, -0.086215, -0.019842, -0.110545, -0.125489, 0.084348, -0.008302, -0.007948, -0.049642, -0.033833, 0.059981, -0.097224, -0.023618, -0.123003, -0.197553, 0.034995, -0.121244, -0.128357, 0.204308, 0.069219, -0.031442, -0.121705, -0.188214, -0.078748, 0.032773, -0.070960, 0.099465, 0.041376, 0.039577, 0.043347, 0.047595, 0.116817, 0.049669, -0.096164, -0.032163, 0.092838, -0.052449, -0.063896, 0.058938, -0.069203, -0.019350, -0.011857, 0.135246, -0.102420, -0.064509, 0.084164, -0.030633, 0.022489, -0.127672, 0.037179, 0.061146, 0.025324, 0.042040, -0.007754, -0.158338, -0.021982, 0.063653, 0.181704, 0.158798, -0.167036, 0.095586, -0.051811, 0.053910, -0.007533, -0.053444, -0.147081, 0.096802, 0.048554, 0.066817, -0.021935, 0.109207, -0.013699, -0.038960, -0.084319, 0.128193, -0.020451, 0.120957, 0.056338, -0.019772, 0.145416, -0.060826, -0.093192, 0.192552, 0.150630, -0.087415, 0.039868, -0.092037, -0.131432, 0.040881, 0.025332, 0.029247, 0.116224, 0.015705, 0.024701, 0.055737, -0.014677, 0.071953, 0.053244, 0.051724, -0.053697, 0.049398, -0.012151, 0.085090, 0.230880, 0.171973, -0.030856, -0.203816, -0.012133, 0.076530, 0.154210, -0.040552, 0.032652, -0.000103, -0.041535, -0.137608, 0.111849, 0.100752, 0.078373, 0.013545, 0.196275, 0.081271, 0.152005, -0.139059, 0.020680, -0.150889, -0.243670, 0.051382, -0.004138, -0.038276, -0.013434, 0.085294, 0.077854, -0.081195, -0.161827, -0.114780, -0.107578, 0.097040, 0.079682, -0.026296, -0.148712, 0.030835, 0.176184, 0.073985, -0.126612, 0.087575, -0.031971, -0.264182, -0.103145, 0.141479, -0.097736, 0.149826, 0.031678, -0.024516, 0.029773, -0.053284, -0.054787, -0.056394, 0.160125, -0.125716, 0.113217, -0.020659, 0.118675, 0.031677, -0.139397, 0.021784, -0.034574, 0.143082, 0.043731, 0.070800, -0.006596, -0.020252, -0.076722, 0.122335, 0.147153, -0.013365, 0.063342, -0.047393, 0.089579, -0.204984, -0.042290, -0.107887, 0.030655, -0.033466, 0.159125, 0.008364, -0.032657, -0.066460, 0.018533, -0.025572, -0.007980, -0.041940, -0.081503, 0.037523, 0.032076, 0.019545, 0.145961, 0.022247, -0.034436, -0.038186, -0.070158, -0.042257, -0.065835, 0.050733, -0.063055, 0.127083, -0.026393, 0.130687, -0.174193, 0.016690, 0.099230, -0.022931, -0.019660, 0.063046, 0.055852, 0.154766, 0.019512, 0.096310, 0.088084, 0.114106, 0.034956, 0.088412, -0.094760, -0.044335, -0.094516, -0.102150, 0.124555, 0.156873, 0.028701, 0.027584, 0.092820, 0.101160, -0.089261, 0.211237, 0.168332, -0.234428, -0.051775, -0.067313, 0.150771, -0.092868, -0.201352, 0.015860, -0.353201, 0.049481, 0.209391, -0.116835, 0.010670, -0.073075, 0.040870, -0.093887, -0.066538, 0.059863, 0.113994, 0.239693, -0.044874, 0.100718, 0.100485, -0.017655, -0.046345, 0.210665, -0.274070, -0.116423, 0.195986, 0.162736, -0.046492, -0.023928, -0.015765, 0.094728, 0.059350, -0.280661, -0.204805, 0.081619, 0.021037, -0.303114, 0.069461, -0.155750, -0.123042, 0.238069, -0.109775, -0.053096, 0.145266, 0.015747, 0.227568, -0.101892, 0.093070, -0.077043, -0.263605, -0.234107, -0.131633, -0.093641, 0.001570, -0.139903, -0.043128, -0.056881, -0.040358, -0.009798, 0.028833, 0.125265, 0.099124, 0.041358, -0.047602, -0.005964, -0.054150, -0.011487, -0.012815, -0.062553, -0.151718, -0.051173, 0.050889, 0.076924, 0.029654, 0.200017, 0.138073, 0.063991, -0.063181, -0.114526, 0.045737, -0.121305, -0.100826, 0.109003, 0.081140, 0.166175, 0.119561, 0.091185, -0.009412, 0.081408, -0.139048, -0.027382, 0.047150, 0.008405, 0.056914, 0.071592, -0.109109, 0.100634, 0.059412, 0.015417, -0.052583, 0.196628, -0.117999, -0.095973, -0.080375, 0.106496, 0.073944, 0.042290, -0.003918, 0.061525, 0.018917, -0.029626, -0.086377, 0.029401, 0.007724, 0.034554, 0.028428, 0.016809, 0.179231, -0.036309, -0.140692, -0.108470, 0.137331, -0.179067, -0.010797, -0.072542, -0.068532, -0.071220, 0.069854, -0.141873, 0.017078, 0.050833, -0.023533, -0.015193, 0.019380, 0.269407, -0.023037, 0.030156, -0.097436, 0.110379, 0.079497, 0.023197, -0.101481, -0.072227, 0.111776, 0.161961, 0.102188, 0.084161, -0.019275, 0.028706, -0.154935, 0.057709, -0.001654, 0.093908, 0.115158, 0.008813, -0.102589, 0.077858, 0.085023, -0.026366, 0.164109, 0.068006, -0.102138, -0.040752, -0.061015, -0.144904, -0.095503, 0.034257, -0.058322, 0.095133, -0.065022, -0.097549, 0.085260, -0.018441, 0.140407, -0.075078, 0.175215, -0.121545, 0.024719, -0.064678, -0.175344, -0.012509, -0.020705, 0.044446, -0.056035, 0.042486, -0.140570, 0.017377, -0.069247, 0.042466, 0.095706, -0.094638, 0.006779, 0.107334, -0.051073, 0.169091, -0.007405, -0.011866, 0.057721, -0.070655, 0.044307, -0.082438, -0.111872, 0.123613, -0.007829, 0.064837, -0.066778, 0.047098, -0.040249, 0.022927, -0.234438, 0.129537, 0.089246, -0.029043, -0.056491, 0.117827, -0.015061, 0.057330, -0.081157, -0.062089, -0.054998, -0.005773, 0.013648, 0.108050, -0.130808, 0.081251, -0.149413, 0.093483, -0.036209, 0.105625, -0.122171, -0.110136, 0.150241, -0.020460, -0.000494, -0.141215, -0.013293, -0.072131, -0.032128, -0.009909, -0.014804, -0.114556, -0.040308, 0.021204, -0.066224, -0.067910, 0.076940, 0.045519, -0.183302, -0.096773, 0.110436, -0.056705, 0.091279, 0.007703, 0.007332, 0.126993, 0.067930, -0.037812, -0.031730, -0.261475, -0.015847, -0.091192, 0.005470, 0.030420, -0.172590, 0.030506, -0.001987, -0.179357, -0.058783, -0.037166, 0.213425, 0.000929, 0.077950, 0.139457, 0.009108, 0.212644, -0.094792, 0.195889, 0.032816, 0.045602, -0.178375, 0.043362, -0.046256, -0.011922, -0.094762, -0.106402, -0.009624, -0.033293, -0.027673, -0.188183, 0.098670, -0.095210, 0.174919, -0.173060, -0.081986, 0.148792, 0.006577, 0.128023, -0.109433, -0.007275, -0.006866, -0.052289, 0.198254, 0.099149, 0.038432, -0.100835, -0.007080, 0.083885, 0.072298, -0.023821, 0.154759, 0.008277, -0.050794, -0.086438, -0.016902, 0.011414, -0.260144, -0.167625, 0.068825, -0.070115, -0.057761, -0.045620, -0.004989, -0.024649, 0.078604, -0.016106, -0.015207, -0.103084, -0.122277, -0.117183, 0.044553, -0.039283, 0.002425, -0.016296, -0.055159, 0.014285, 0.054252, -0.211190, 0.045726, 0.133468, 0.052005, -0.080519, 0.106929, -0.082153, -0.135643, 0.032547, -0.023226, 0.088065, -0.108287, -0.087167, 0.018114, -0.011789, -0.003413, -0.050966, 0.028655, 0.219960, 0.101958, -0.070229, 0.009177, 0.007697, -0.104473, 0.012352, -0.149415, 0.226390, -0.020843, 0.118136, -0.114514, -0.157651, -0.077805, -0.118792, -0.089239, 0.280367, -0.013504, -0.039847, 0.057867, -0.023327, 0.208426, -0.004208, 0.104472, 0.040782, 0.044295, 0.084270, 0.001093, 0.040626, 0.021849, -0.064392, 0.017106, 0.082152, -0.012231, -0.036732, 0.058681, 0.092069, 0.096772, -0.017508, -0.105761, -0.042235, 0.040734, -0.096768, -0.025099, 0.082447, -0.023170, -0.010704, -0.150381, 0.071552, -0.003600, -0.039760, -0.288411, -0.078703, 0.022093, -0.047777, -0.134759, 0.066746, 0.037691, -0.099517, -0.132513, -0.043930, -0.003475, 0.012961, -0.138622, 0.022165, -0.032120, -0.102579, 0.015541, 0.091037, -0.007398, 0.101515, -0.070012, -0.093243, 0.075607, 0.008862, 0.159196, -0.103124, 0.199204, -0.105614, 0.006379, -0.008216, -0.038996, -0.018864, 0.052421, -0.174469, -0.105142, 0.086029, 0.175772, -0.026795, -0.078336, 0.119053, 0.124166, -0.039002, 0.047840, -0.109678, 0.129331, -0.097624, 0.033573, -0.075986, 0.026319, 0.173308, -0.036076, 0.040504, 0.079963, -0.106863, -0.097757, 0.037636, 0.173355, 0.151019, 0.026507, -0.004205, 0.052465, -0.038634, 0.154526, -0.040559, 0.011937, 0.048113, 0.015452, -0.024683, -0.071535, 0.016271, -0.062330, -0.037050, -0.082478, 0.129270, 0.083163, -0.033247, -0.112610, 0.028722, 0.079997, -0.174539, 0.074261, 0.019447, -0.097121, 0.131466, 0.028804, -0.077223, 0.075873, -0.023944, 0.135091, -0.069927, 0.011127, -0.076552, 0.016470, 0.022947, -0.077473, 0.011431, 0.019634, -0.102891, 0.011680, 0.071391, -0.101165, -0.052330, 0.015247, -0.004045, 0.150949, 0.028430, -0.037371, 0.082804, -0.057086, 0.011200, 0.059277, -0.020431, -0.019564, 0.050803, 0.073775, 0.010992, -0.102771, 0.000870, -0.035695, 0.005267, 0.062508, -0.041869, -0.031438, 0.064957, -0.130338, 0.055296, -0.054003, 0.002198, -0.076078, 0.020326, -0.123801, -0.096264, -0.006092, 0.039117, 0.064487, 0.037784, 0.084742, 0.078409, -0.051510, 0.144861, -0.166482, -0.023956, 0.075200, -0.036980, 0.015049, 0.033078, 0.079417, 0.055480, 0.051424, -0.009592, -0.024523, -0.097548, 0.078120, 0.130116, 0.156909, 0.013307, 0.149667, -0.014668, -0.052627, -0.118562, -0.032014, -0.189459, -0.012884, -0.065725, 0.077264, -0.069402, 0.080739, 0.005945, 0.131603, -0.037050, 0.054203, -0.062511, -0.044948, 0.045891, -0.001712, -0.126475, -0.095354, 0.080322, 0.001095, -0.071295, 0.073592, -0.083549, -0.047109, 0.085574, -0.010137, 0.060058, -0.087263, 0.110916, 0.006235, -0.043628, 0.173728, 0.133315, 0.023930, -0.136011, 0.056234, 0.072186, 0.012202, -0.043643, -0.093673, 0.015329, -0.090308, 0.029407, 0.029310, 0.115927, -0.053425, 0.022403, 0.110033, 0.063611, -0.079254, 0.136779, 0.031183, -0.056471, -0.069205, 0.041631, -0.069548, 0.056791, 0.085075, 0.070721, 0.212841, -0.115369, 0.076049, -0.043600, 0.001636, 0.011739, 0.092664, -0.174160, -0.124818, -0.133739, -0.023803, -0.050492, -0.106681, -0.067144, 0.024291, 0.050455, 0.115172, -0.012051, -0.052160, 0.129686, 0.086751, -0.009377, -0.015899, -0.015503, -0.072808, -0.039694, 0.110304, -0.013694, -0.094944, -0.019165, -0.161182, 0.003128, 0.067928, -0.064021, 0.294040, 0.045350, -0.028823, 0.237287, 0.113177, -0.239666, 0.160518, -0.060962, -0.066214, -0.055666, 0.038694, 0.067669, -0.077468, -0.228178, 0.133231, 0.131064, 0.010943, 0.241373, 0.091565, 0.140152, -0.054836, -0.076490, -0.092992, -0.035092, -0.080679, 0.215377, -0.015738, 0.120865, -0.045938, -0.101940, 0.154496, -0.094810, 0.176437, 0.022609, -0.116355, -0.097626, 0.152470, -0.054785, 0.073678, -0.059679, 0.002831, -0.112739, 0.088255, 0.249461, 0.161789, -0.225039, 0.030896, -0.025436, 0.242538, 0.108633, -0.089484, -0.060254, -0.069422, 0.204624, 0.161359, -0.036382, -0.067814, -0.062414, 0.168519, -0.129282, 0.221341, 0.148643, 0.067493, 0.081366, 0.035273, -0.115939, 0.032785, -0.141849, -0.001283, 0.093052, -0.174658, -0.114100, -0.094329, 0.017600, 0.018779, 0.075223, 0.021194, -0.084587, 0.031664, -0.117722, -0.058213, 0.178438, 0.019337, -0.085373, 0.093791, -0.107025, -0.103175, 0.092859, 0.078070, -0.303184, -0.003014, -0.134242, 0.072100, -0.059787, 0.006248, 0.086070, -0.052917, -0.130827, 0.048014, -0.062174, -0.048770, -0.215409, 0.063475, -0.065786, 0.037009, -0.023178, 0.131897, -0.018869, -0.015942, 0.114587, -0.022334, -0.113867, 0.171284, -0.068692, 0.064782, 0.070105, 0.007553, -0.113211, 0.020953, -0.056588, 0.029124, -0.078651, 0.029589, -0.153679, 0.136994, -0.027612, -0.100909, 0.026762, -0.018195, 0.027500, 0.108166, -0.147786, -0.095500, -0.031770, 0.062009, 0.080413, 0.029130, -0.079360, 0.024726, -0.040240, -0.023664, 0.089008, -0.085798, 0.010818, 0.099661, -0.082579, -0.104750, -0.104430, -0.084165, 0.079296, -0.066029, 0.018135, -0.077544, -0.009894, -0.072715, 0.066466, 0.032620, 0.027396, 0.074441, 0.040721, 0.114143, -0.051587, 0.153232, 0.088289, 0.129182, -0.126863, 0.101881, 0.024119, -0.068127, 0.106906, 0.070153, 0.033057, 0.065105, 0.032257, 0.000990, 0.065788, 0.014951, -0.027440, -0.008544, -0.016379, -0.062853, -0.064671, 0.035884, -0.018830, 0.003666, -0.147629, 0.060867, -0.096927, -0.068009, -0.059652, -0.021275, 0.015957, 0.006258, 0.092652, 0.124239, 0.149352, -0.053871, -0.147341, 0.119373, -0.035875, -0.075754, -0.084145, -0.141152, 0.083076, 0.068354, 0.017559, -0.038518, 0.121867, -0.079747, -0.048273, -0.095021, 0.030923, -0.111805, -0.079218, 0.005136, 0.008191, 0.039917, 0.101982, 0.005838, 0.024817, 0.097038, -0.098291, 0.119253, -0.091866, -0.142637, 0.037348, -0.103536, -0.129136, 0.159168, -0.031839, -0.031865, 0.025938, 0.140831, -0.032778, 0.071311, 0.140290, 0.089079, -0.085493, -0.055613, -0.006508, 0.009321, 0.070747, 0.057522, 0.001580, 0.006628, 0.135710, -0.040368, -0.030354, 0.019418, -0.041896, 0.109306, 0.039123, 0.071851, 0.119717, 0.049647, 0.156600, -0.025453, -0.052911, -0.067899, 0.056035, 0.045605, 0.038562, 0.030194, 0.100098, 0.080482, 0.205612, 0.062606, -0.054004, 0.074110, -0.029739, -0.077146, 0.155443, 0.034396, -0.041262, -0.059992, 0.073197, 0.055152, 0.033792, -0.088359, -0.047253, 0.075784, -0.134916, 0.023151, 0.134617, 0.067599, -0.047568, 0.042224, 0.020431, 0.047275, -0.041267, 0.039675, -0.052804, -0.021193, -0.083448, 0.057243, -0.131189, -0.023961, 0.010896, 0.011813, 0.018741, 0.014168, 